754 100 19327
equivalent -0.14907081425189972 -0.10726036131381989 -0.054068673402071 -0.007167009636759758 0.014592824503779411 -0.19072328507900238 -0.05466778203845024 0.026751480996608734 0.12284412235021591 0.02761627919971943 0.05275457352399826 0.02391105145215988 -0.0884716585278511 0.03958636522293091 -0.04613323137164116 0.11555055528879166 0.024613816291093826 -0.09387911856174469 -0.023311691358685493 -0.005314814392477274 0.04937855526804924 -0.18659651279449463 -0.047655075788497925 0.09587983042001724 0.027949832379817963 -0.047490715980529785 0.029789546504616737 0.1390535682439804 0.07518328726291656 -0.09578515589237213 -0.07828635722398758 0.0044959611259400845 0.2027801126241684 -0.22487221658229828 -0.09598075598478317 0.016896549612283707 0.03680342063307762 0.08766613900661469 0.16113513708114624 0.10535165667533875 0.23065359890460968 -0.07238750904798508 -0.013253546319901943 -0.006370589602738619 0.04008399695158005 -0.030679361894726753 -0.07190476357936859 -0.04435667768120766 -0.007921740412712097 -0.19745025038719177 0.23028674721717834 0.04243164137005806 0.025634726509451866 0.06993470340967178 0.049528736621141434 0.20836172997951508 -0.08018381893634796 -0.1203264594078064 0.10396729409694672 -0.043061867356300354 -0.13145607709884644 0.08472049236297607 0.032735422253608704 -0.013959484174847603 -0.05363044515252113 -0.034625355154275894 -0.06237420067191124 -0.23253558576107025 0.16325338184833527 0.01847965270280838 0.03712022677063942 -0.02738092839717865 -0.08317377418279648 0.039457645267248154 0.056321486830711365 0.13609346747398376 -0.03577157482504845 -8.176647825166583E-4 -0.01605158858001232 -0.010361711494624615 -0.02372995764017105 -0.11224623024463654 0.047984424978494644 0.1345549374818802 -0.12387251853942871 -0.047986604273319244 -0.24295003712177277 -0.02577761374413967 -0.04889967292547226 -0.0871393233537674 -0.0341339111328125 -0.1078331246972084 0.12741690874099731 0.11395969241857529 0.1549665331840515 0.1566021889448166 -0.017092378810048103 -0.0020265241619199514 0.0159122534096241 0.1441655308008194
parent -0.07884493470191956 -0.03730166703462601 0.1794256716966629 -0.03828906640410423 0.17057646811008453 0.08615362644195557 7.139042718335986E-4 -0.05302226543426514 -0.016180848702788353 -0.16874827444553375 -0.020659584552049637 -0.07979962229728699 -7.982216193340719E-4 0.209187850356102 0.11296912282705307 -0.045613743364810944 -0.07377144694328308 -0.019422246143221855 -0.046977926045656204 -0.18676063418388367 0.0308381300419569 -0.10208090394735336 0.012016571126878262 0.09524790942668915 0.015424182638525963 -0.014768612571060658 0.05336351692676544 -0.052293118089437485 0.0027382737025618553 -0.012998164631426334 0.011434742249548435 0.08346837759017944 -0.12024351209402084 -0.03316174075007439 -0.09860824048519135 0.06518399715423584 0.14817911386489868 -0.06507347524166107 0.09102827310562134 0.2058509737253189 0.07079850882291794 -0.1029084250330925 0.014239446260035038 -0.06456703692674637 0.031574830412864685 -0.1063881516456604 0.04960804432630539 -0.018416598439216614 0.11019186675548553 -0.014256849884986877 -0.020587164908647537 0.11852078884840012 -0.08841457962989807 -0.04466569051146507 0.1362352967262268 0.016335055232048035 -0.1986398994922638 0.17005936801433563 0.13202518224716187 -0.12394466251134872 -0.11593377590179443 0.23215922713279724 -0.029119109734892845 0.10666633397340775 0.12073241174221039 0.06728308647871017 -0.086319200694561 -0.056578487157821655 0.12004589289426804 -0.05949922651052475 0.02966206893324852 0.11033229529857635 -0.02571357600390911 0.07322000712156296 -0.06124785542488098 0.18990226089954376 -0.017437253147363663 -0.0673903375864029 -0.12684877216815948 -0.15969112515449524 0.10538110136985779 -0.14958080649375916 -0.11260986328125 -0.042863018810749054 -0.19220390915870667 -0.14164018630981445 0.07676634192466736 -0.06495847553014755 0.03914952278137207 0.01097873691469431 -0.015004970133304596 0.030617939308285713 0.1604863405227661 0.09293568134307861 0.13692046701908112 0.15930433571338654 -0.11420600861310959 0.042430777102708817 -0.05307350307703018 -0.06045108661055565
been -0.1404711753129959 -0.030617447569966316 0.04070329666137695 -0.11396308988332748 0.18836788833141327 0.19302265346050262 -0.026436224579811096 -0.15785589814186096 0.037159331142902374 -0.10765621811151505 0.03957994282245636 -0.07799431681632996 -0.16736051440238953 0.13599924743175507 0.009278505109250546 0.07207891345024109 -0.023695211857557297 -0.05127539858222008 -0.14660850167274475 0.00633534649387002 0.025787290185689926 -0.04424211382865906 0.1233220025897026 0.18976499140262604 -0.0583319365978241 -0.16510605812072754 0.030651746317744255 -0.09697109460830688 -0.02085573785007 -0.08475150913000107 -0.07499776780605316 0.010813822969794273 -0.015786049887537956 -0.10349676012992859 -0.027994630858302116 0.11132476478815079 0.1935308426618576 0.032350774854421616 0.16350500285625458 0.20290116965770721 0.1295703947544098 -0.08298790454864502 -0.034866802394390106 -0.0579756498336792 0.0072128064930438995 -0.07932284474372864 -0.028910085558891296 -0.02116660214960575 0.09969443827867508 -0.09981552511453629 0.03822978585958481 0.06708592921495438 0.09199501574039459 -0.07876008749008179 0.23633261024951935 0.008264320902526379 -0.14174558222293854 0.039255447685718536 -0.1545940339565277 -0.2220357209444046 -0.22559599578380585 0.21246609091758728 0.12380687892436981 -0.051545631140470505 0.13250498473644257 -0.055144697427749634 -0.0745813399553299 -0.003942808602005243 0.08295799046754837 0.0050095063634216785 -0.10187702625989914 0.04615117982029915 -0.11278391629457474 0.2099587470293045 0.03287450224161148 -0.045292459428310394 -0.09324715286493301 -0.11855511367321014 -0.10569190979003906 -0.022051341831684113 0.05534405633807182 -0.0015144739300012589 -0.04141255468130112 -0.053232550621032715 -0.025555746629834175 -0.027709953486919403 0.03736475855112076 0.03997192159295082 -0.001011414802633226 -0.04709726944565773 -0.07370878010988235 0.05461506545543671 0.07688199728727341 0.01868206262588501 0.02974667400121689 -0.05646553635597229 -0.09350404888391495 0.043606966733932495 -0.07109387964010239 0.025175444781780243
Caper 0.03779913857579231 -0.008398891426622868 -0.012896686792373657 -7.381289033219218E-4 -0.12058275192975998 0.11296414583921432 0.0770597830414772 -0.023311903700232506 0.0638861432671547 0.003271395806223154 -0.04073446989059448 -0.19347608089447021 -0.036103371530771255 0.09335844218730927 -0.07071404159069061 -0.1537354588508606 -0.05450180172920227 0.1601414531469345 -0.14883527159690857 -0.0037190308794379234 0.07533925026655197 0.0542883463203907 0.15650881826877594 0.034910768270492554 0.052315711975097656 -0.0531621091067791 -0.0383928120136261 0.05022867023944855 -0.024505138397216797 -0.1556137651205063 0.061843592673540115 0.005511077586561441 -0.014800012111663818 -0.20794445276260376 -0.07716058939695358 0.04215839505195618 0.09856973588466644 0.0038341176696121693 0.011460301466286182 0.12832602858543396 -0.010568730533123016 0.04769701510667801 0.03718984127044678 -0.09963265806436539 -0.15858812630176544 0.0633929967880249 -0.09267805516719818 0.11217893660068512 0.08666517585515976 -0.06596222519874573 0.03204202651977539 -0.10793974250555038 -0.03628052398562431 -0.07597127556800842 -0.03163117170333862 -0.07518480718135834 -0.10223071277141571 0.061341021209955215 -0.1688687801361084 -0.12261007726192474 -0.12774772942066193 0.10244865715503693 -0.06982865184545517 0.09910616278648376 -0.034669358283281326 8.013254264369607E-4 -0.12396496534347534 0.13543875515460968 0.07289805263280869 0.14777256548404694 -0.1088137999176979 0.11062029004096985 -0.1326027363538742 0.21696604788303375 0.12731020152568817 -0.02970459684729576 -0.15972542762756348 0.16528020799160004 0.014740807935595512 0.0019181669922545552 0.059551749378442764 0.07180050015449524 0.02564101666212082 -0.13554790616035461 -0.08784841001033783 -0.24670468270778656 0.057289689779281616 -0.07584018260240555 -0.13762269914150238 -0.18616357445716858 0.1186237707734108 0.09659543633460999 0.15211613476276398 -0.06225280463695526 0.16349105536937714 0.022825492545962334 0.05619610846042633 0.12558385729789734 0.06116300821304321 -0.00485953688621521
probeinconsistenttopping -0.035505056381225586 -0.007631875108927488 0.12366028875112534 -0.07692229002714157 0.1281541883945465 0.12998062372207642 -0.07603828608989716 -0.008877995423972607 0.06975974887609482 -0.11294546723365784 -0.04923449829220772 -0.08959610760211945 -0.06369607150554657 0.12570112943649292 -0.07897093147039413 0.06389914453029633 -0.0028905749786645174 -0.003270647721365094 0.0965227261185646 0.04587078467011452 0.0022897906601428986 -0.08323067426681519 0.019823966547846794 0.07485697418451309 -0.05413733795285225 -0.10683425515890121 7.129454170353711E-4 -0.044523127377033234 0.015639323741197586 0.06549841910600662 -0.029322288930416107 -0.05987079441547394 -0.1376565545797348 -0.11095618456602097 -0.02306387573480606 0.01952609419822693 0.12319948524236679 -0.01908879168331623 0.1165330559015274 0.22253882884979248 -0.0034682012628763914 0.02915922924876213 -0.14717550575733185 -0.08773020654916763 0.04026004299521446 -0.0913359597325325 0.03578139469027519 0.028380414471030235 -0.021324163302779198 -0.11423738300800323 -0.07367455214262009 0.08166918158531189 0.08808313310146332 0.08982764929533005 0.06362790614366531 0.020164810121059418 -0.13312649726867676 0.08442961424589157 0.08934547007083893 -0.23650653660297394 -0.2592194080352783 0.13491210341453552 -0.05987921357154846 0.1230522096157074 -0.09687740355730057 0.0041351658292114735 -0.13000981509685516 0.1590089350938797 0.18758948147296906 -0.01552647352218628 -0.006162464153021574 0.014599851332604885 0.02985166385769844 0.14519917964935303 -0.023028628900647163 0.18317757546901703 -0.13335585594177246 -0.024601202458143234 -0.025262104347348213 -0.08864261955022812 0.10372910648584366 -0.20894944667816162 0.006697223521769047 -0.027171960100531578 -0.05609413608908653 0.014538845978677273 0.1384691447019577 -0.02578396536409855 -0.03620842099189758 -0.13062326610088348 -0.05217362195253372 0.057217128574848175 0.2573755979537964 0.06224760040640831 0.23596294224262238 0.11971896886825562 -0.062419820576906204 -0.026220859959721565 -0.14372435212135315 0.012203987687826157
Pepper -0.032726939767599106 -0.08239024877548218 -0.06967154145240784 0.05253759026527405 0.05373283848166466 0.09023191779851913 -0.06824097037315369 -0.02742270566523075 0.08582179248332977 -0.12250661849975586 -0.0889056921005249 -0.12073233723640442 0.061839692294597626 0.042162708938121796 -0.19318054616451263 -0.154975026845932 -8.101591374725103E-4 -0.04647890105843544 0.02082698792219162 0.27712568640708923 0.0912412479519844 0.014444205909967422 0.013967564329504967 0.12341495603322983 0.06230848655104637 -0.13718542456626892 -0.09929922968149185 0.07353751361370087 -0.06085285171866417 0.044453538954257965 0.07295074313879013 -0.021205084398388863 0.13432739675045013 -0.07835283130407333 -0.1798664629459381 0.003652854124084115 0.03122846968472004 -0.0979691594839096 0.11561612039804459 0.10014033317565918 0.037809230387210846 -0.0030435905791819096 0.09372556209564209 -0.05491502955555916 -0.11735156178474426 -0.06824507564306259 -0.1202019527554512 0.2225482165813446 -0.00668066181242466 -0.018972555175423622 -0.05239998176693916 -0.21870572865009308 0.06868094205856323 0.049225952476263046 -0.010815148241817951 0.11292526125907898 0.06332145631313324 0.09830546379089355 0.020438898354768753 -0.07721367478370667 0.0372866652905941 0.09431414306163788 -0.1277015656232834 0.006674580276012421 0.08634006232023239 0.13328301906585693 -0.04583680257201195 0.15014202892780304 0.08461496233940125 -0.03204726055264473 -0.10624897480010986 0.09115193039178848 -0.11187868565320969 0.2278909534215927 -0.17343996465206146 -0.1247439980506897 -0.08831208944320679 0.0596381314098835 0.017579128965735435 0.015899531543254852 0.11601275205612183 0.1143377274274826 -0.06649121642112732 -0.06229865550994873 -0.003037957474589348 -0.03804250434041023 0.11511837691068649 -0.059609897434711456 -0.24339479207992554 0.05876826494932175 0.11675932258367538 0.042467933148145676 0.13157694041728973 0.13696874678134918 0.0776030570268631 0.0892474353313446 -0.03973272442817688 0.10025928169488907 0.052331168204545975 0.06606515496969223
beef 0.025386573746800423 -0.10029467195272446 -0.1440562903881073 0.10820238292217255 -0.01489243470132351 -0.15169820189476013 -0.14847560226917267 0.09752930700778961 0.011948496103286743 -0.08030658215284348 -0.05672025308012962 -0.06564318388700485 0.0809754729270935 0.04604749009013176 -0.10847713053226471 0.09825616329908371 -0.13922032713890076 0.07408569753170013 0.08188311010599136 0.08650773018598557 -0.06641960144042969 -0.008287946693599224 0.012982860207557678 0.1056448370218277 -0.0034273264463990927 0.03326483815908432 0.11739064007997513 0.21608969569206238 0.047192953526973724 -0.02132686972618103 -0.14710207283496857 -0.010301221162080765 -0.01685681752860546 0.05716843158006668 0.18577289581298828 -0.10935916006565094 0.12416111677885056 0.08455708622932434 0.18257847428321838 0.1437085121870041 -0.09061311185359955 0.05567186698317528 0.10207143425941467 -0.11912452429533005 -0.011000053025782108 0.19570395350456238 0.029897063970565796 -0.0249100960791111 0.10254015028476715 0.18732531368732452 0.1381211280822754 -0.0037977241445332766 0.10163135826587677 0.09971563518047333 0.17270779609680176 0.19211040437221527 0.11127835512161255 0.01880537159740925 -0.007553005591034889 0.02309761382639408 -0.11022999882698059 0.11650706827640533 0.01384394709020853 0.0516565777361393 0.09334438294172287 -0.1205998882651329 0.057670820504426956 0.15396736562252045 0.12066958099603653 -0.03378618508577347 -0.10289032012224197 0.0052334158681333065 -0.16186341643333435 -0.012500775046646595 0.008680345490574837 -0.07059331983327866 0.06741926074028015 0.014639589935541153 -0.13626541197299957 -0.06823506206274033 0.018770597875118256 0.13615809381008148 -0.010244898498058319 0.0117419995367527 0.13083870708942413 -0.13309700787067413 -0.09927092492580414 0.10207968950271606 -0.006823050323873758 -0.07653731107711792 0.23926852643489838 0.0362066887319088 0.06759431958198547 -0.021248579025268555 0.16193385422229767 0.0075292158871889114 -0.03482286259531975 0.10141343623399734 0.05323434993624687 0.023432714864611626
http://www.co-ode.org/ontologies/pizza/pizza.owl#TomatoTopping 0.0723550021648407 -0.04101365804672241 0.05839632451534271 -0.0038504654075950384 -0.07121795415878296 -0.08090595155954361 0.12063302099704742 -0.03820473328232765 -0.004719547927379608 0.009632761590182781 -0.02959352172911167 0.07833303511142731 0.06309658288955688 0.03298933058977127 -0.0465376116335392 -0.049625203013420105 -0.020141826942563057 -0.006061535328626633 -0.01996123045682907 0.09816005080938339 -0.002238469198346138 -0.03099762834608555 -0.02820209600031376 -0.16746404767036438 0.043535277247428894 -0.04985683783888817 -0.03574943542480469 -0.05438673868775368 0.1968086212873459 -0.22223606705665588 -0.18039058148860931 0.14708109200000763 -0.007793128956109285 -0.07946259528398514 -0.027581555768847466 -0.046218372881412506 0.003225170774385333 0.2567232847213745 -0.08860334753990173 0.09519121795892715 -0.23266777396202087 0.0443151630461216 0.07362329214811325 -0.14752790331840515 -0.10212193429470062 0.16614370048046112 -0.054310258477926254 0.05388698726892471 0.03285779803991318 0.14612409472465515 0.04907424375414848 -0.09215892851352692 -0.11229028552770615 0.07197483628988266 -0.08253290504217148 -0.0830034613609314 -0.17158445715904236 0.05109459161758423 -0.003136810613796115 0.02710106037557125 0.21676050126552582 0.20385733246803284 -0.12096217274665833 0.16003499925136566 -0.13338057696819305 -0.006470079533755779 -0.03507937863469124 0.12127341330051422 0.028250601142644882 0.1521303802728653 -0.11302914470434189 0.07901003211736679 0.02381034567952156 0.11808784306049347 0.11031622439622879 -0.12450944632291794 -0.013744025491178036 0.029976220801472664 0.02422276884317398 0.03490585461258888 0.04493197053670883 -0.014177892357110977 -0.10821457952260971 -0.03394360840320587 -0.051559921354055405 -0.035732489079236984 0.02753627672791481 -0.08097916096448898 -0.13802975416183472 -0.08186856657266617 0.14327175915241241 -0.19082817435264587 0.1355338990688324 -0.0627843514084816 0.19352394342422485 0.056612011045217514 0.07533156126737595 -0.027042848989367485 0.09003623574972153 -0.00377442454919219
sauce -0.05638064816594124 0.018313121050596237 -0.014238963834941387 0.027957025915384293 0.04176618158817291 -0.2722797691822052 0.0791272521018982 0.04917442053556442 -0.09088022261857986 -0.10033072531223297 -0.055700063705444336 -0.0739273950457573 0.00744222104549408 0.02826620452105999 -0.024860888719558716 -0.17864513397216797 -0.03501337021589279 0.06612866371870041 -0.015979189425706863 0.03522447496652603 -0.1374230533838272 -0.14752714335918427 0.018990639597177505 0.19311220943927765 0.04182535037398338 -0.1673162877559662 -0.2387665957212448 0.1512259691953659 0.12502777576446533 0.04319189861416817 -0.01586083509027958 -0.06742136925458908 0.04630906134843826 -0.19929799437522888 -6.051449454389513E-4 -0.033283084630966187 -0.02112673595547676 0.01980017125606537 0.11144174635410309 -0.04518948495388031 0.03495161980390549 0.0064446646720170975 0.05188818648457527 -0.007174196187406778 -0.004834805615246296 0.027575857937335968 -0.028501475229859352 0.06734170764684677 0.06820069253444672 -0.020897071808576584 -0.0037794876843690872 -0.15234577655792236 -0.018351273611187935 -0.049822017550468445 0.14102745056152344 0.11664896458387375 0.08463556319475174 -0.017230277881026268 0.04720389470458031 -0.11799872666597366 -0.008236715570092201 0.014492405578494072 -0.24647493660449982 -0.12108130007982254 0.010060964152216911 -0.015280712395906448 0.16586051881313324 0.15355469286441803 0.04381328076124191 0.09644658863544464 0.06723649799823761 -0.12428049743175507 -0.1388864517211914 0.0905560553073883 -0.023372571915388107 0.02994243986904621 -0.20385079085826874 0.05205278471112251 -0.011962348595261574 -0.15313459932804108 -0.21300752460956573 -0.05649964138865471 -0.03639918193221092 0.08262757956981659 0.1208740696310997 0.02544371969997883 -0.01144103892147541 -0.11245701462030411 -0.0876857116818428 0.09855879098176956 -0.10079699754714966 -0.13586804270744324 0.055430665612220764 0.13954778015613556 0.10253342986106873 0.17677994072437286 -0.11486496776342392 0.011326983571052551 0.0277484692633152 0.11149214953184128
http://www.co-ode.org/ontologies/pizza/pizza.owl#DeepPanBase -0.044494226574897766 -0.031644247472286224 -0.007259966805577278 0.08806522935628891 0.09926977753639221 0.00713863642886281 -0.06656993180513382 -0.08420169353485107 -0.1230279877781868 -0.11139623820781708 -0.03890817239880562 -0.0656212866306305 -0.018336035311222076 0.08429789543151855 -0.04688969627022743 0.07541995495557785 0.044014398008584976 -0.002933898475021124 0.11530489474534988 0.018660206347703934 0.06088786944746971 0.10114622861146927 0.03768657520413399 -0.035781875252723694 0.06241079047322273 -0.04495719075202942 -0.19622689485549927 -2.7474184753373265E-4 -0.045668624341487885 -0.09614310413599014 -0.09693416208028793 0.17530423402786255 0.031062819063663483 0.04906478151679039 -0.1935758739709854 0.11456900089979172 0.10585946589708328 0.005584537051618099 -0.051429979503154755 0.0994163304567337 0.024122530594468117 -0.07502670586109161 -0.043294019997119904 -0.08888531476259232 0.10207368433475494 0.024703558534383774 -0.17041873931884766 0.06559962779283524 -0.057704344391822815 0.029493587091565132 -0.11198471486568451 -0.10637825727462769 -0.12273979932069778 0.07301152497529984 0.09320945292711258 6.066485657356679E-4 -0.14525870978832245 -0.10306108742952347 0.1259974241256714 -0.03565996140241623 -0.05392809212207794 0.06440919637680054 -0.14650145173072815 0.021921416744589806 0.10552973300218582 0.06608657538890839 -0.011157527565956116 -0.019043846055865288 0.22525103390216827 0.1364126354455948 -0.028263723477721214 0.01148290280252695 0.013950273394584656 0.0923628956079483 -0.05838606506586075 0.03414728865027428 0.11643746495246887 0.10050341486930847 -4.111172165721655E-4 -0.11261577904224396 -0.007157091051340103 -0.036681920289993286 0.1133897453546524 -0.3308626413345337 -0.2074250727891922 -0.09962543100118637 -0.23823437094688416 -0.01572096347808838 -0.14846588671207428 0.16965021193027496 0.11995181441307068 -0.05915072560310364 0.05566765367984772 0.15256261825561523 0.15095870196819305 0.06646943837404251 9.715434280224144E-4 -0.08346079289913177 0.052423398941755295 0.12760695815086365
without 0.02499575726687908 -0.010447276756167412 0.0785076692700386 0.1076657697558403 0.24994364380836487 0.08316421508789062 0.01818280853331089 -0.09601602703332901 -0.02575712464749813 -0.04459723085165024 -0.17990216612815857 -0.017139041796326637 -0.0015667591942474246 0.1194358542561531 0.15161333978176117 -0.06343132257461548 -0.10462474822998047 -0.10252451151609421 -0.22885049879550934 0.07182177901268005 -0.046606458723545074 -0.0313706137239933 0.06807870417833328 0.1699848473072052 -0.03306272625923157 -0.1468672752380371 -0.013688119128346443 -0.08197592943906784 -0.04857270419597626 -0.04857798293232918 -0.03347575664520264 -0.02045639231801033 -0.03978363052010536 -0.10548888891935349 -0.09162963181734085 0.15080033242702484 0.1827172338962555 0.013802995905280113 0.11919918656349182 0.24255232512950897 0.04335610195994377 0.009825385175645351 -0.05697915703058243 -0.07933691889047623 -0.08887407928705215 -0.0759972557425499 0.06687843799591064 0.003897714428603649 -0.06116730719804764 -0.17061467468738556 0.038536038249731064 -0.015977870672941208 0.09129542857408524 -0.045260678976774216 0.01522140670567751 0.08143264055252075 -0.16810046136379242 0.050797853618860245 -0.05773063376545906 -0.07462058216333389 -0.14546111226081848 0.10492463409900665 -0.054411809891462326 0.04789523780345917 0.16871315240859985 -0.009976222179830074 -0.09227704256772995 0.12648800015449524 0.14557847380638123 -0.10819566994905472 0.08437160402536392 -0.0701313391327858 -0.15145443379878998 0.1196911484003067 -0.018567737191915512 0.16299232840538025 -0.07678846269845963 0.08802875131368637 0.01508191879838705 0.04026913642883301 0.054309673607349396 -0.1420307755470276 0.05375201255083084 0.013103197328746319 0.050932299345731735 -0.09034847468137741 0.09462868422269821 0.013715113513171673 -0.036945853382349014 -0.19799228012561798 0.0602450892329216 0.08762899786233902 0.10324287414550781 0.01222012098878622 0.19106493890285492 0.08105833828449249 -0.14423292875289917 0.08702660351991653 -0.06997755169868469 -0.05038715898990631
setting -0.13791395723819733 0.011709647253155708 0.04764729365706444 0.036133963614702225 0.06930424273014069 0.1702166497707367 -0.06664938479661942 -0.1854352504014969 -0.24776102602481842 -0.09094881266355515 0.08464375883340836 0.029210621491074562 -0.002138807438313961 0.15375220775604248 0.029168453067541122 -0.039995864033699036 -0.0802847146987915 -0.11281536519527435 -0.0232537928968668 0.1244632825255394 -0.020945925265550613 -0.04635399207472801 -0.011733531020581722 -0.0065874080173671246 0.05675307288765907 -0.15410137176513672 -0.08308802545070648 -0.027274450287222862 0.009465990588068962 -0.010557126253843307 -0.022175198420882225 -0.04490155354142189 -0.07771062850952148 -0.012696533463895321 -0.14697998762130737 -0.01991725154221058 0.09884442389011383 0.07525227218866348 0.16305463016033173 0.2026289999485016 0.00898571964353323 -0.12880772352218628 -0.08914100378751755 -0.04059109091758728 -0.1499342918395996 0.038001492619514465 0.0744282454252243 0.18283706903457642 0.11927831918001175 -0.004463991150259972 -0.026544582098722458 -0.06922299414873123 -0.06122429668903351 0.11477956175804138 0.103974848985672 -0.016800470650196075 -0.002940128790214658 -0.06749089807271957 0.11571146547794342 0.026218948885798454 -0.13734814524650574 0.23055440187454224 -0.004573633894324303 0.1072840467095375 0.023154592141509056 0.04282727465033531 -0.11179842054843903 0.02806457132101059 0.16363422572612762 -0.02813081443309784 0.07915228605270386 0.10461920499801636 0.016832919791340828 -0.012133322656154633 -0.01212800107896328 0.2267928272485733 -0.016366999596357346 -0.19630533456802368 0.05107990279793739 -0.15537282824516296 0.027770111337304115 -0.017644835636019707 -0.04109929874539375 -0.006519048009067774 -0.18013715744018555 -0.1697758436203003 -0.09959878027439117 -0.09525279700756073 0.10531412810087204 0.06986243277788162 -0.07604272663593292 0.09064345061779022 0.21262431144714355 -0.06810600310564041 0.04560299590229988 -0.01348356157541275 0.05089292302727699 -0.07510103285312653 -0.15058088302612305 -0.033768028020858765
these -0.07273510098457336 -0.06342001259326935 0.0073388079181313515 -0.09626861661672592 0.15803900361061096 0.17690661549568176 -0.02253514528274536 -0.11987395584583282 0.03929774463176727 -0.06997828185558319 0.045035313814878464 -0.09412599354982376 -0.14860473573207855 0.12917616963386536 -0.028607754036784172 0.0387151762843132 0.03136363998055458 -0.03970678895711899 -0.1663113385438919 0.0067116874270141125 0.006077226717025042 -0.05784700810909271 0.12132656574249268 0.19384901225566864 -0.02823198400437832 -0.1740216314792633 0.004688888322561979 -0.09830484539270401 0.02610459178686142 -0.09974610805511475 -0.11335406452417374 0.03314175084233284 -0.012219293974339962 -0.08137375116348267 0.020119085907936096 0.12175630033016205 0.18355482816696167 -0.03933613747358322 0.09918662160634995 0.19790971279144287 0.10498867928981781 -0.0670420229434967 -0.029872143641114235 -0.06737329810857773 0.061320073902606964 -0.08411120623350143 -0.10403049737215042 0.05191059783101082 0.10356736183166504 -0.11422175168991089 0.02841339074075222 0.08851631730794907 0.10394476354122162 -0.13448728621006012 0.19386759400367737 0.029081951826810837 -0.15929993987083435 0.015405603684484959 -0.145158052444458 -0.28790083527565 -0.21969906985759735 0.1663609743118286 0.12231052666902542 -0.056073058396577835 0.09068743139505386 -0.0635683536529541 -0.03822367265820503 0.062152229249477386 0.06227991729974747 0.005801274906843901 -0.13747721910476685 0.009073286317288876 -0.11347422748804092 0.22895723581314087 0.04544072598218918 -0.10168404877185822 -0.12210465967655182 -0.10533858090639114 -0.07043283432722092 0.02447568252682686 0.08604675531387329 -0.010860263369977474 -0.031062887981534004 -0.045621663331985474 0.045455653220415115 -0.04758673533797264 -0.034471288323402405 0.004038844723254442 0.018609309569001198 -0.040685418993234634 -0.028414659202098846 0.0246020145714283 0.06813564151525497 0.0740387961268425 0.06014581769704819 -0.031816624104976654 -0.14975681900978088 0.10613236576318741 -0.0637955516576767 0.06181986257433891
Mild -0.03277088701725006 -0.06463035941123962 -0.039474256336688995 0.06977751106023788 0.07124405354261398 -0.05019069090485573 0.04329684376716614 -0.11238691210746765 -0.043704885989427567 -0.0796126052737236 -0.030851317569613457 0.011747912503778934 7.594110793434083E-4 0.010947267524898052 -0.12010135501623154 -0.1342543512582779 0.05727669596672058 0.040374793112277985 -0.01996557228267193 0.03610870987176895 0.16369399428367615 0.07607412338256836 -0.024836106225848198 0.03185439109802246 -0.062121301889419556 0.017602792009711266 -0.09945349395275116 -0.06752472370862961 -0.09380269050598145 -0.06526076048612595 -0.03464339300990105 0.01074746623635292 -0.0600988008081913 -0.1487853229045868 -0.034640226513147354 -0.009089109487831593 0.11121109873056412 0.05959703028202057 -0.07782316207885742 0.11738775670528412 0.07705600559711456 -0.010474433191120625 -0.09475334733724594 -0.01953589729964733 -0.11036679893732071 0.04512356221675873 -0.0702788233757019 0.21818695962429047 -0.1358346939086914 -0.17434106767177582 0.17178815603256226 -0.1011287271976471 0.021518951281905174 0.11447262018918991 0.035211995244026184 -0.13863687217235565 -0.2171557992696762 0.04694041237235069 -0.10011189430952072 -0.12220299988985062 -0.07336641848087311 0.10093573480844498 -0.114476278424263 -0.06698852777481079 0.014637571759521961 -0.02866939641535282 -0.12768420577049255 0.09284032136201859 0.08163174241781235 0.06251472979784012 -0.044580280780792236 0.14572206139564514 -0.05093827098608017 0.3011704385280609 0.07221407443284988 -0.07084497064352036 -0.1223008930683136 0.2236279994249344 -0.07474610954523087 -0.06204646825790405 -0.09202935546636581 0.040986619889736176 -0.06702754646539688 -0.16247528791427612 -0.0035528584849089384 -0.08802236616611481 0.015450630336999893 -0.04354698210954666 -0.11922304332256317 -0.187209814786911 0.19074560701847076 0.07514939457178116 0.18941079080104828 -0.003392189973965287 0.18305183947086334 0.034453488886356354 0.023507628589868546 0.06756126135587692 0.11470092087984085 0.08168918639421463
OneOf: 0.10690458863973618 -0.02732759900391102 -0.008605447597801685 0.13472504913806915 0.06906519830226898 0.07016745209693909 -0.12221338599920273 -0.0783262625336647 -0.06720627844333649 0.0687226727604866 0.05495059862732887 -0.11191777139902115 -0.10307879745960236 0.03435144200921059 -0.14839103817939758 0.0982326790690422 0.08456330746412277 -0.08323667198419571 -0.026408972218632698 0.023512423038482666 0.005309258121997118 0.03650503605604172 0.016244400292634964 -0.07403799146413803 0.03705857694149017 -0.02025303617119789 -0.07535357773303986 -0.2004089504480362 0.027048571035265923 -0.12515440583229065 -0.16532935202121735 -0.0935056284070015 -0.017561476677656174 -0.05550834909081459 -0.05876361206173897 0.18604974448680878 -0.02260589972138405 -0.0855126678943634 0.0890975147485733 0.2182713896036148 0.06515730917453766 -0.03831062838435173 -0.050311509519815445 0.043768562376499176 -0.07197024673223495 0.05475282669067383 -0.17427308857440948 0.2159220576286316 -0.15860946476459503 -0.08582625538110733 -0.01894187740981579 -0.17541229724884033 0.010562133975327015 -0.03275256231427193 0.14821811020374298 0.022023074328899384 -0.10113196074962616 0.04605324566364288 0.019280940294265747 -0.1195971816778183 -0.12960296869277954 0.11211613565683365 0.07237479090690613 0.1217842772603035 0.053944408893585205 -0.07906146347522736 -0.10689596831798553 0.1544259488582611 0.1264190971851349 -0.1133575290441513 -0.10805398225784302 0.06994029134511948 -0.22081530094146729 0.09550084173679352 0.11199871450662613 0.02715378813445568 -0.15561476349830627 -0.01520874910056591 -0.058967474848032 -0.06748154014348984 0.17914775013923645 -0.08159976452589035 -0.07091560959815979 -0.13502447307109833 0.02985442616045475 -0.16369037330150604 -0.01692112348973751 -0.003399406559765339 0.08716407418251038 -0.13273228704929352 0.14295513927936554 0.04370883107185364 0.09447842836380005 0.03541984409093857 0.16501393914222717 0.04879698157310486 0.09284217655658722 0.05842794105410576 -0.028227532282471657 0.021123960614204407
caprina 0.256451815366745 0.07988698780536652 0.03082418255507946 -0.025563888251781464 -0.11461421102285385 -0.17026883363723755 0.19313305616378784 0.007486740127205849 -0.023923125118017197 -0.1784489005804062 -0.07941051572561264 0.06033629924058914 -0.1258593499660492 0.15612731873989105 -0.14488743245601654 0.18627043068408966 -0.061517246067523956 0.03887360170483589 -0.16797085106372833 0.013229461386799812 0.12280375510454178 -0.25047579407691956 0.08084085583686829 0.12342573702335358 0.032415278255939484 -0.14687392115592957 -0.0625227764248848 0.12107057124376297 -0.09141664206981659 -0.2694161832332611 0.04313340038061142 -0.051422011107206345 0.0392928309738636 -0.0767010897397995 -0.1604386568069458 -0.08241255581378937 -0.0400896891951561 0.0013552630553022027 0.1279066950082779 -0.02154064178466797 -0.00845438614487648 0.08330517262220383 -0.05456692352890968 -0.06688596308231354 0.008328472264111042 0.11274159699678421 0.16959896683692932 -0.11266075819730759 -0.08168358355760574 0.05557569861412048 0.0011500655673444271 -0.05160439759492874 0.02182399295270443 0.06662219762802124 0.14320410788059235 0.039942264556884766 0.10275675356388092 0.14119628071784973 -0.06537894159555435 0.14854077994823456 -0.056167103350162506 0.08909394592046738 -0.02561909705400467 0.07268920540809631 0.11799808591604233 4.602137778420001E-4 0.09154871106147766 -0.17453576624393463 0.044330134987831116 0.051624901592731476 -0.02762940712273121 0.022612469270825386 0.05433332920074463 -0.05675458908081055 0.1069425567984581 0.011492573656141758 -0.03812310844659805 0.029197093099355698 0.04954364150762558 -0.09606219083070755 0.03932344168424606 -0.06235232204198837 -0.11045670509338379 -0.0465264767408371 -0.11979307234287262 -0.037513114511966705 0.11335498094558716 0.09788931161165237 -0.03716868534684181 -0.01332254707813263 0.09939944744110107 0.1023220494389534 -0.028340863063931465 -0.1067768856883049 -0.0137398736551404 -0.12206435948610306 -0.03362368419766426 0.009813008829951286 0.06294231116771698 -0.0734974667429924
http://www.semanticweb.org/owl2vec#typeOf -0.10412716865539551 0.06342915445566177 -0.025262733921408653 0.03056727908551693 0.17821179330348969 -0.031270336359739304 0.05135297402739525 -0.059148043394088745 -0.12090075761079788 0.11283612996339798 -0.032844554632902145 -0.0998106598854065 -0.12923963367938995 0.13746245205402374 -0.07625242322683334 -0.02207597903907299 0.02091212011873722 -0.058128949254751205 -0.2074897140264511 0.0593213252723217 0.010934307239949703 0.1065024733543396 0.0423092395067215 0.0197028499096632 -0.034181926399469376 0.004675387870520353 -0.0036701106000691652 -0.27325043082237244 -0.03605238348245621 0.034456171095371246 -0.15373113751411438 -0.20075643062591553 -0.09080173075199127 -0.059739477932453156 -0.026131585240364075 0.1326700896024704 0.04726245254278183 0.021461281925439835 0.07690279930830002 0.18326230347156525 4.986163548892364E-5 0.035285335034132004 -0.022385191172361374 0.01057500671595335 -0.09216678142547607 0.13499169051647186 -0.09485688805580139 0.06574031710624695 -0.02837919071316719 -0.0615236833691597 0.06968649476766586 -0.22894549369812012 -0.13000062108039856 -0.04565384238958359 0.10101071000099182 -0.05879766494035721 -0.07062792032957077 6.841141730546951E-4 -0.18483488261699677 0.02897721901535988 -0.15081648528575897 0.1755826622247696 -0.025535713881254196 0.095855712890625 0.011797796003520489 0.005184338893741369 -0.031389299780130386 0.11391760408878326 0.12479938566684723 -0.04869111627340317 -0.00819473061710596 -0.05090335011482239 -0.10260337591171265 -0.021846521645784378 0.2674539089202881 -0.10682927072048187 -0.1272382289171219 0.0021540808957070112 0.06560546904802322 -0.09171412885189056 -0.0194475706666708 0.1328122317790985 -0.20068475604057312 -0.05821011960506439 0.0573328360915184 -0.07147765904664993 -0.12407572567462921 0.21502149105072021 0.058634307235479355 -0.12876734137535095 0.016669973731040955 0.035399336367845535 0.06120589002966881 -0.11123545467853546 0.017755990847945213 0.09190491586923599 0.04948977008461952 0.04152835160493851 -0.0716259628534317 -0.030722033232450485
would -0.14971010386943817 0.012346787378191948 0.1748684048652649 0.07950451225042343 0.23397307097911835 0.1292794942855835 -0.1939648687839508 -0.11300016194581985 -0.07822366803884506 -0.0338963083922863 -0.12114570289850235 -0.1466154158115387 -0.13901977241039276 0.2228371500968933 0.0672723650932312 0.04218128323554993 0.05343569442629814 -0.14551205933094025 -0.07787065953016281 -0.03934717923402786 0.001382513321004808 -0.11452742666006088 0.07345211505889893 0.04352227970957756 -0.04938936606049538 -0.15050026774406433 0.010114254429936409 0.019966432824730873 -0.0327124185860157 -0.17955072224140167 -0.0476369634270668 -0.049153219908475876 0.1680721789598465 -0.07498031854629517 -0.06357898563146591 0.006260901689529419 0.018404411152005196 -0.048023488372564316 0.10136689990758896 0.1938094049692154 0.20888930559158325 0.09360257536172867 -0.024684173986315727 0.13979607820510864 -0.13976746797561646 0.005877982825040817 -0.04645276814699173 0.1388082206249237 -0.010736001655459404 -0.2322365790605545 0.08317320048809052 -0.07964778691530228 0.04722689464688301 0.019334325566887856 0.14335975050926208 0.022998342290520668 -0.12117813527584076 -0.062231987714767456 -0.057578619569540024 -0.08743388950824738 0.10400845855474472 0.1270388811826706 -0.009174967184662819 0.11196519434452057 0.12465523928403854 -0.05072709545493126 -0.013921808451414108 0.08445588499307632 0.1697530746459961 -0.03736848011612892 0.03523857519030571 0.037870779633522034 -0.055408257991075516 0.02711096964776516 0.036084745079278946 0.13349679112434387 -0.04201241955161095 -0.01732725277543068 -0.07046066224575043 -0.020582586526870728 0.1448698788881302 0.05349613353610039 0.15713155269622803 0.024768201634287834 -1.139564992627129E-4 -0.10487955808639526 -0.07541833817958832 -0.07556572556495667 -0.049523163586854935 -0.07573141157627106 0.05206331983208656 0.0859043151140213 -0.019998911768198013 -0.05370085686445236 0.158567413687706 -0.01117856428027153 0.05462641268968582 0.07576480507850647 -0.07838616520166397 0.017268899828195572
disjoint -0.07784122973680496 0.01560934353619814 0.1483246386051178 0.035189975053071976 0.16655802726745605 0.19162118434906006 0.05918663367629051 -0.14006192982196808 0.12164577096700668 -0.021645892411470413 -0.16861885786056519 -0.10139936953783035 -0.17111659049987793 0.11091160029172897 -0.018220029771327972 0.19957886636257172 0.059265006333589554 -0.04387951269745827 -0.10900335013866425 0.012128562666475773 0.09217999130487442 -0.06760383397340775 0.08264060318470001 0.11135317385196686 -0.009378684684634209 -0.10447443276643753 -0.12656521797180176 -0.0883093997836113 0.05528208613395691 -0.2693004608154297 -0.012611079029738903 -0.03482934832572937 0.08678700774908066 -0.08809308707714081 -0.01606110855937004 0.18779274821281433 -0.06788352876901627 -0.14893147349357605 0.03858914598822594 0.09056540578603745 0.09698304533958435 -0.078565314412117 0.011668388731777668 0.1193268820643425 -0.1329023689031601 -0.034085460007190704 -0.04306365177035332 -0.0348782017827034 0.09538188576698303 -0.09593979269266129 -0.08321958780288696 -0.06782539188861847 -0.05948759987950325 0.1082799956202507 0.16492965817451477 0.016756262630224228 -0.10785017907619476 -0.011212826706469059 0.039005622267723083 -0.05242424085736275 -0.06272546201944351 0.02436707355082035 -0.05653686821460724 0.11079491674900055 0.05771668627858162 0.06590288877487183 0.025213167071342468 -0.024747515097260475 0.08440838009119034 -0.10813772678375244 0.08671023696660995 0.15766744315624237 -0.019835790619254112 0.17722034454345703 -0.0014351721620187163 0.21911601722240448 -0.09029750525951385 0.10667390376329422 -0.1163293868303299 -0.014660457149147987 0.1335710734128952 -0.10023556649684906 0.02690369449555874 -0.07584550976753235 -0.08657023310661316 -0.12819615006446838 0.06289056688547134 -0.02804168313741684 -0.014352476224303246 -0.16872788965702057 -0.019328953698277473 -0.0065971314907073975 0.06501314789056778 -0.09971592575311661 -0.0015213206643238664 -0.07163432985544205 -1.43785699037835E-4 0.05808482691645622 -0.2224130481481552 -0.019618060439825058
Capricciosa 0.09979551285505295 -0.05898059159517288 0.1474928855895996 0.1680608093738556 -0.04575200006365776 -0.04198218137025833 0.02653595618903637 0.07755633443593979 0.11947667598724365 -0.03172089532017708 -0.10497130453586578 -0.19769571721553802 0.07497753202915192 0.045112136751413345 -0.014313759282231331 -0.052919164299964905 -0.04039519652724266 0.03603116050362587 -0.19207654893398285 -0.09230251610279083 0.0646308958530426 -0.08102382719516754 0.15230171382427216 -0.04869686812162399 0.10026013851165771 0.028452087193727493 -0.04637214168906212 -0.020885396748781204 -0.008910694159567356 -0.1880241185426712 -0.04538038745522499 0.18665428459644318 -0.006814608350396156 -0.06346923857927322 0.023236989974975586 0.034971658140420914 -0.07832237333059311 -0.10488247126340866 -0.04590250179171562 0.025129923596978188 0.06484411656856537 0.033580269664525986 0.1371874362230301 -0.010344186797738075 -0.07180711627006531 0.0712057575583458 -0.21362853050231934 0.11013434827327728 0.0914597138762474 -0.01819273829460144 -0.13164474070072174 -0.09782376885414124 -0.031218120828270912 0.017207562923431396 -0.008399256505072117 0.12590186297893524 -0.02297254651784897 0.1714160144329071 -0.04112550988793373 -0.10530253499746323 0.08446943014860153 0.005274148657917976 0.03781001269817352 -0.03444039821624756 0.008904511108994484 -0.007541431579738855 -0.07702898979187012 0.0019333548843860626 -0.028748029842972755 0.23688630759716034 -0.1064140722155571 0.01713789440691471 -0.18628650903701782 0.29237478971481323 -0.01456163078546524 -0.026673519983887672 -0.013423388823866844 0.12166803330183029 0.005881583783775568 0.033709969371557236 0.16458363831043243 0.027261730283498764 0.07574678957462311 -0.15724900364875793 0.07797836512327194 -0.20916004478931427 0.049057912081480026 -0.10043331980705261 -0.058718323707580566 -0.09535420686006546 0.25255098938941956 0.06895933300256729 0.1302340030670166 0.0240066759288311 0.11088992655277252 0.04354199022054672 -0.0021791262552142143 0.07756467163562775 0.0668724924325943 -0.021785879507660866
property, 0.11778102070093155 0.05753589794039726 0.17699387669563293 0.10619057714939117 0.09402639418840408 0.1326783001422882 -0.07524362206459045 -0.19498516619205475 0.007908111438155174 0.0297080110758543 -0.03618746995925903 -0.002935263328254223 -0.09883856028318405 0.17389529943466187 0.07987190037965775 0.09080300480127335 -0.03702985867857933 -0.10473205894231796 -0.024746647104620934 -0.05638320371508598 0.07261298596858978 -0.008540394715964794 0.12436012923717499 0.0488617867231369 0.01920410618185997 -0.2022344321012497 0.04474343731999397 -0.022102750837802887 -0.1287282258272171 -0.0841469019651413 -0.05873958393931389 -0.04352355748414993 -0.05538182705640793 0.02712409198284149 -0.1341969221830368 -6.534139538416639E-5 0.15683694183826447 -0.18181487917900085 0.07323309779167175 0.13614341616630554 -0.03855224698781967 0.009385046549141407 -0.03434399142861366 -0.05302119255065918 0.0681786835193634 -0.05696156620979309 0.02573530375957489 0.16941611468791962 0.08712538331747055 -0.1481899917125702 0.09918113797903061 0.006886358372867107 -0.09985276311635971 -0.12106654793024063 0.055006109178066254 0.05384451523423195 -0.05043688416481018 0.09604427218437195 -0.08142294734716415 -0.18582496047019958 -0.10684084892272949 0.13582567870616913 -0.038798339664936066 0.0645633190870285 0.09741554409265518 0.1212996244430542 0.10606031119823456 0.05189500376582146 0.2485552877187729 0.028796138241887093 -0.02542935684323311 0.041307780891656876 -0.07173506915569305 0.029864562675356865 0.031772926449775696 0.21569114923477173 0.01704644225537777 -0.05717849358916283 0.025627559050917625 -0.0665314570069313 0.08711487054824829 -0.11749013513326645 -0.01910192146897316 -0.003868935164064169 0.0026649124920368195 -0.2537612318992615 -0.07569662481546402 0.12826715409755707 0.07962753623723984 -0.04571603238582611 0.07845856994390488 0.08925150334835052 0.18585768342018127 0.1140613853931427 0.2124231457710266 0.04829469695687294 -0.02181418426334858 0.032626356929540634 -0.05649103596806526 0.022287800908088684
interestingpizza 0.18153248727321625 -0.07956452667713165 0.0665716826915741 -0.02917725034058094 0.13955816626548767 -0.09750854223966599 -0.014285138808190823 -0.19155041873455048 -0.15968631207942963 0.014918080531060696 0.10303233563899994 -0.034669987857341766 -0.00349416327662766 0.09932590276002884 -0.2713329493999481 0.20088723301887512 0.013317889533936977 -0.07026304304599762 -0.1175672858953476 -0.014506795443594456 0.05817753076553345 -0.01756402477622032 0.02775401808321476 0.008765226230025291 0.00820227526128292 -0.017636721953749657 -0.07226259261369705 -0.017195478081703186 0.052039071917533875 -0.12323981523513794 -0.13026654720306396 -0.028432728722691536 0.0857597142457962 -0.19196397066116333 -0.033349473029375076 0.01358273345977068 0.056820228695869446 -0.006399022415280342 0.22601693868637085 0.1008698120713234 0.0610625222325325 0.03952416405081749 0.08694715797901154 -0.12126415222883224 0.1240033209323883 0.09264573454856873 -0.12988805770874023 -0.21252843737602234 -0.14673186838626862 -0.008393721655011177 -0.0865304172039032 -0.14866307377815247 -0.005926135927438736 0.008353222161531448 0.2158438116312027 0.0369974784553051 -0.048533134162425995 0.06438390165567398 0.13491639494895935 -0.04672560468316078 -0.20272532105445862 -0.027187272906303406 0.05792803689837456 -0.09692502021789551 -0.08093425631523132 0.03334180638194084 -0.03013734519481659 -0.07775565981864929 0.045835599303245544 -0.03318750485777855 -4.5779699576087296E-4 -0.07066388428211212 4.521949904301437E-6 0.07651611417531967 0.039487987756729126 -0.014500134624540806 6.865161703899503E-4 0.11045725643634796 -0.04994434118270874 0.04894544184207916 -0.15153415501117706 -0.03531196713447571 0.04351217672228813 -0.17123490571975708 0.06902431696653366 -0.02984386682510376 -0.2641488015651703 -0.04517904669046402 0.14208723604679108 0.0669078603386879 -0.02726852148771286 -0.08737199753522873 -0.019621707499027252 0.046531956642866135 0.09249956905841827 -0.044676948338747025 0.050625886768102646 0.0016867689555510879 0.1582120805978775 0.06653378903865814
http://www.co-ode.org/ontologies/pizza/pizza.owl#PolloAdAstra 0.1268436461687088 0.09314233809709549 0.08647216111421585 0.004980841651558876 -0.05128994584083557 -0.010283577255904675 -0.11893177032470703 0.07447633892297745 0.02639833092689514 0.05284545198082924 -0.0399152897298336 0.0664333775639534 -0.003631804371252656 0.1996348798274994 0.0038149028550833464 0.12298674881458282 0.014830364845693111 0.08626683801412582 -0.05196666717529297 -0.040053047239780426 0.04648953303694725 0.07737819105386734 0.10261238366365433 -0.03907916694879532 0.14532092213630676 0.10050538927316666 -0.16269375383853912 0.07591889053583145 -0.03932514786720276 0.018465755507349968 0.06724218279123306 0.07554621249437332 0.031065965071320534 -0.09086643904447556 0.028854304924607277 -0.09961584210395813 0.0887836217880249 -0.01621859148144722 -0.018880214542150497 0.1147255077958107 0.05616481229662895 -0.030106421560049057 -0.09735673666000366 0.07149171084165573 -0.17865358293056488 0.1502424031496048 0.0764496698975563 0.03268424794077873 0.14446693658828735 0.03982969745993614 0.03232252225279808 -0.14894235134124756 -0.05671782046556473 0.30431345105171204 0.09797514975070953 -0.12728194892406464 0.06455855816602707 0.05180339515209198 0.050401702523231506 0.04802882298827171 -0.25091999769210815 0.1536065936088562 -0.12825414538383484 0.09695199877023697 -0.12775669991970062 -0.06637855619192123 -0.2437031865119934 -0.04815069958567619 0.10865224897861481 0.052078861743211746 -0.1686861664056778 0.028063016012310982 0.03446517139673233 0.10444694012403488 -0.046322051435709 0.01970973238348961 -0.07177454978227615 0.07520829141139984 0.03233132138848305 -0.03106386959552765 0.07740283757448196 -0.11206302791833878 -0.057921767234802246 -0.03184307739138603 -0.12922415137290955 0.0013165716081857681 0.13272881507873535 -0.14922159910202026 -0.04932984709739685 0.047837838530540466 0.18709057569503784 0.1423666626214981 0.08322049677371979 -0.09172579646110535 -0.050709318369627 0.0066214692778885365 0.1274612545967102 0.015441914089024067 -0.042541101574897766 0.17481915652751923
because -0.04187828302383423 -0.011018693447113037 -0.03990057855844498 0.05727516859769821 0.15532708168029785 0.10478481650352478 -0.07083573192358017 -0.1284688264131546 0.16126175224781036 0.011478593572974205 -0.12778444588184357 -0.056996554136276245 -0.0856890082359314 0.28844860196113586 0.055151522159576416 0.03863314539194107 -0.12323912233114243 -0.02056647092103958 -0.23289138078689575 -0.05949510633945465 -0.014079850167036057 -0.22334690392017365 0.032015930861234665 0.06803589314222336 0.06079034134745598 -0.1564408242702484 -0.10800495743751526 -0.09176173061132431 0.04358970373868942 -0.08745947480201721 -0.03839137777686119 -0.05027546361088753 0.1527612954378128 -0.12118452042341232 -0.13382291793823242 0.07225633412599564 -7.949750288389623E-4 0.04184689745306969 -0.008804877288639545 0.19676858186721802 0.08300729095935822 -0.01331120915710926 -0.019299793988466263 -0.015305881388485432 -0.01458493247628212 -0.12458904087543488 -0.031160995364189148 -0.054790738970041275 0.15910704433918 0.05782732367515564 -0.04385364055633545 0.04479198902845383 -0.10268820822238922 -0.03398473560810089 0.08393637090921402 0.04137664660811424 -0.03854025527834892 -0.0022600230295211077 -0.05479399487376213 -0.01871360093355179 -0.06704182922840118 0.12504175305366516 -0.14472243189811707 0.01102469302713871 0.09464948624372482 -0.08054881542921066 -0.07096394896507263 0.06356196850538254 0.0513528473675251 -0.07589157670736313 0.0961485281586647 -0.0328291617333889 -0.13685579597949982 0.07033611088991165 0.05918233096599579 0.18610036373138428 -0.0924319252371788 -0.029340673238039017 -0.0966072753071785 0.04930567741394043 -0.056965261697769165 -0.07165119796991348 0.038604654371738434 -0.0752141997218132 -0.08580043166875839 -0.17520356178283691 -0.04183240979909897 0.044745493680238724 0.09155676513910294 5.573155358433723E-4 -0.16027304530143738 -0.019280793145298958 0.09409278631210327 -0.09901642799377441 0.0857185497879982 0.010717345401644707 -0.17571094632148743 0.11842328310012817 -0.27011996507644653 0.12144573032855988
InterestingPizza 0.025341961532831192 -0.06514733284711838 0.08231466263532639 0.05430395156145096 0.10887610912322998 0.03745768964290619 -0.008509857580065727 -0.1630212515592575 -0.09929484128952026 -0.030734185129404068 0.06289295107126236 -0.04984084516763687 -0.02843116968870163 0.04463851451873779 -0.17118647694587708 -0.07367059588432312 -0.07567563652992249 0.039777014404535294 -0.0010444505605846643 0.0015755662461742759 0.05166229233145714 0.10963264852762222 -0.024043971672654152 -0.05473405867815018 0.06913725286722183 0.03874329850077629 0.0013731844956055284 -0.0764661356806755 0.0012021720176562667 -0.14883586764335632 -0.11477421969175339 0.057949356734752655 -0.06444468349218369 -0.22241082787513733 -0.09520038217306137 0.1362268477678299 0.010986622422933578 -0.0022728038020431995 0.08849240094423294 0.25021570920944214 0.0912531241774559 0.1618097424507141 -5.69359865039587E-4 -0.13405700027942657 -0.05583861097693443 -0.02987578697502613 -0.09824573248624802 0.19227395951747894 -0.05502583831548691 -0.0326361283659935 -0.0365549772977829 -0.12079017609357834 0.0169320497661829 -0.0903158038854599 0.11226290464401245 -0.07004925608634949 -0.1724192202091217 0.04643312469124794 -0.05448604375123978 -0.0751681849360466 -0.06364961713552475 0.17413370311260223 -0.03258292004466057 0.15762604773044586 0.009971128776669502 -0.037075478583574295 -0.02819734998047352 0.03396221622824669 0.17653091251850128 -0.014673096127808094 -0.019951365888118744 0.0689336284995079 -0.07861195504665375 0.20331676304340363 0.08997480571269989 -0.04880962893366814 -0.11287456005811691 0.17918460071086884 0.129991814494133 -0.005130607169121504 0.07765553891658783 -0.13371334969997406 -0.0799826830625534 -0.14526709914207458 -0.04046306759119034 -0.1638096123933792 -0.020457299426198006 -0.026921236887574196 -0.12479992210865021 -0.11903813481330872 0.08665451407432556 0.01335078664124012 0.18300196528434753 0.017458777874708176 0.27780038118362427 0.03508457913994789 -0.03960782289505005 0.11844393610954285 0.07865696400403976 0.021988436579704285
http://www.co-ode.org/ontologies/pizza/pizza.owl#SauceTopping -0.02587292715907097 0.09647584706544876 0.08319734036922455 -0.003430370707064867 -0.04505539685487747 -0.02203507535159588 0.18586106598377228 0.04897691309452057 -0.07083760201931 -0.15499746799468994 -0.003760924795642495 -0.02467285841703415 0.005055074580013752 0.11034106463193893 -0.12785935401916504 -0.1317349523305893 -0.03837721794843674 0.09790300577878952 0.029293473809957504 -0.08954805135726929 -0.020781459286808968 0.0914485976099968 0.04628077521920204 0.01599390245974064 0.09631592035293579 -0.17951509356498718 -0.018226061016321182 0.21113230288028717 -0.028665462508797646 -0.05751527473330498 -0.07857441902160645 -0.10059130936861038 0.13816489279270172 -0.09081147611141205 0.05463781952857971 0.07278700917959213 0.20054320991039276 0.030984513461589813 0.023594191297888756 0.08161649107933044 0.12131460756063461 0.16748645901679993 -0.12773074209690094 -0.281059205532074 0.06403610855340958 0.004314785823225975 -0.12345568090677261 0.18448041379451752 0.023512117564678192 0.09934178739786148 0.00461319275200367 -0.12234736233949661 -0.06445115804672241 0.13307863473892212 -0.00493165198713541 0.009326239116489887 0.023781411349773407 0.0738474503159523 0.08457580953836441 -0.04245375841856003 -0.0848284587264061 0.017247015610337257 -0.12344224750995636 0.06185666099190712 -0.08859428018331528 -0.07429515570402145 -0.001235305331647396 0.2219303697347641 -0.0490264929831028 0.04879717901349068 -0.04357549548149109 -0.08274395763874054 -0.059753526002168655 0.07864009588956833 0.050179071724414825 -0.04400831460952759 -0.09100872278213501 0.04780589044094086 -0.007012769114226103 -0.11139173805713654 -0.10761694610118866 -0.07592827826738358 -0.035319432616233826 0.0053496286273002625 -0.04238840192556381 -0.02934427559375763 -0.07684385031461716 -0.09279759973287582 0.14502190053462982 0.1162625104188919 -0.11626442521810532 -0.06753262877464294 0.29439666867256165 -0.0012235086178407073 0.2138999104499817 -0.04619916155934334 -0.08147560060024261 0.06709975004196167 0.11185244470834732 0.07533042132854462
spicytopping 0.0495670847594738 0.020453253760933876 -0.04139136150479317 -0.04798810929059982 -0.06996531784534454 0.010617895983159542 0.0765853002667427 0.06451857835054398 0.06836897879838943 0.038533538579940796 0.11413556337356567 0.1749100238084793 -0.03493424877524376 0.04617716372013092 -0.04339901730418205 0.010865855030715466 -0.02857937105000019 -0.04426661878824234 0.06006583943963051 0.024582086130976677 0.13945496082305908 -0.06254096329212189 -0.08709848672151566 0.19474342465400696 0.04424785450100899 -0.035526420921087265 0.0727972760796547 -0.02171948552131653 0.12181340903043747 -0.022201279178261757 -0.15322083234786987 -0.01934286393225193 0.21698085963726044 -0.1857646405696869 0.07567998766899109 0.05173005536198616 0.09233194589614868 0.13330288231372833 0.16028502583503723 0.11215353012084961 0.06711498647928238 0.01405850239098072 0.03361666947603226 -0.15487812459468842 0.13438458740711212 0.15710383653640747 0.14181120693683624 -0.04332814738154411 -0.2545022964477539 0.01121524441987276 0.14385999739170074 0.011249621398746967 -0.06763629615306854 0.12264978140592575 0.10843735933303833 0.12268456816673279 0.06072608381509781 -0.04722639173269272 0.13140259683132172 0.04012330248951912 -0.15218529105186462 0.20485234260559082 0.12032891809940338 0.12667487561702728 -0.12908300757408142 0.027932224795222282 -0.05767403915524483 -0.01930878311395645 0.10614866018295288 -0.16938038170337677 -0.005773077253252268 -0.016349121928215027 -0.04592250660061836 0.09491579979658127 0.0846816673874855 0.13391219079494476 -0.033968571573495865 0.01070565264672041 -0.13847169280052185 -0.14631646871566772 -0.1605219841003418 -0.16788482666015625 -0.03202466294169426 0.09459571540355682 -0.015894154086709023 -0.0996166542172432 -0.11875683814287186 0.12233428657054901 0.056394848972558975 -0.004408126696944237 0.04842299595475197 -0.08291254192590714 0.14753228425979614 0.08567209541797638 0.031227407976984978 -0.024026911705732346 8.4526656428352E-4 0.10451151430606842 0.02372991293668747 0.0014417945640161633
Reine 0.0885094404220581 -0.06847541034221649 0.1232997253537178 0.008310298435389996 0.13350367546081543 0.1618080586194992 -0.04827529937028885 0.13870875537395477 0.06896388530731201 -0.042695850133895874 -0.12755443155765533 -0.047922294586896896 0.02052493393421173 0.1519099771976471 -0.0981459841132164 -0.10206641256809235 -0.03318607434630394 0.058423347771167755 -0.22766660153865814 -0.06967570632696152 -0.06948955357074738 0.012917797081172466 0.17841748893260956 -0.0722150206565857 0.12808644771575928 -0.10667993873357773 -0.08930405229330063 -0.17901119589805603 0.012555630877614021 -0.1278638243675232 -0.07099881768226624 0.11016108840703964 -0.003993199672549963 -0.14472025632858276 -0.039023060351610184 0.08339942246675491 -0.08056133985519409 0.009294692426919937 0.09033221006393433 0.13882136344909668 0.008327997289597988 -0.03260931372642517 0.04957828298211098 -0.018929405137896538 -0.18997523188591003 0.1340903788805008 -0.10466329753398895 0.12231262028217316 0.023130014538764954 -0.16622747480869293 -0.0874553769826889 -0.2118532955646515 -0.055316805839538574 -0.04044412449002266 -0.010697780176997185 0.1454889327287674 -0.142741397023201 0.08590757846832275 -0.020574191585183144 -0.03980594873428345 0.10280314832925797 -8.548030746169388E-4 0.08098216354846954 0.08353405445814133 -0.057519786059856415 0.07923955470323563 -0.06413150578737259 0.030852679163217545 0.007356532849371433 0.0818406268954277 -0.03461702913045883 0.06942673772573471 -0.06741385906934738 0.3091505169868469 0.07119937241077423 -0.036766842007637024 0.0024155513383448124 -0.029816390946507454 0.11402364820241928 0.1271095871925354 0.12627623975276947 0.01652107760310173 0.013647746294736862 -0.08284473419189453 -0.07133567333221436 -0.09355003386735916 0.15556970238685608 -0.05749326944351196 -0.09287915378808975 -0.12089268863201141 0.09605977684259415 -0.02012532949447632 0.16509346663951874 -0.0014987216563895345 0.1507711112499237 0.07186638563871384 0.03255080431699753 0.050202686339616776 -0.06712213903665543 0.023076746612787247
Thing 0.04364330694079399 -0.06411973387002945 0.003801915096119046 0.06416905671358109 0.04922695830464363 0.031707167625427246 -0.020433619618415833 -0.06941195577383041 0.02192193642258644 0.01949891448020935 -0.11709859222173691 -0.0012218685587868094 -0.0021070465445518494 0.19248655438423157 -0.08399679511785507 -0.038653817027807236 -0.0170254185795784 -0.018123233690857887 -0.17858420312404633 -0.0046382625587284565 0.08753746747970581 0.042288459837436676 -0.003970088437199593 -0.03117232583463192 0.07241608947515488 0.005650732666254044 -0.11265923082828522 -0.14545752108097076 -0.006608962081372738 -0.05322817340493202 -0.08801291882991791 0.03037576749920845 -0.038061536848545074 -0.1319183111190796 -0.16785648465156555 0.1656077653169632 0.01089377049356699 -0.06424349546432495 0.0418776273727417 0.21434001624584198 0.12073643505573273 0.015142577700316906 -0.018552424386143684 0.015413007698953152 -0.19279883801937103 0.0277726911008358 -0.15134726464748383 0.25031089782714844 -0.16416916251182556 -0.095723457634449 -0.003384972922503948 -0.2441452145576477 -0.0489608533680439 0.08701666444540024 0.1314207762479782 0.09456384927034378 -0.2048780769109726 0.010409492067992687 -0.036545198410749435 -0.08183302730321884 -0.04628781974315643 0.1422579288482666 -0.035030998289585114 0.09739257395267487 0.058737173676490784 -0.06422774493694305 -0.0831768736243248 0.06906304508447647 0.07620160281658173 -0.09137425571680069 -0.08956895768642426 0.13474281132221222 -0.1158602386713028 0.22358953952789307 0.02043662592768669 -0.005557815544307232 -0.1799798458814621 0.06560050696134567 0.10543909668922424 0.004491488449275494 0.10184979438781738 -0.11665734648704529 -0.07890700548887253 -0.18955150246620178 -0.018081828951835632 -0.12371684610843658 0.08442436903715134 -0.0819757804274559 -7.590563036501408E-4 -0.04319936782121658 0.04100332781672478 0.09666171669960022 0.11226963996887207 -0.012078410014510155 0.2014179825782776 -0.04628423601388931 -0.007131979800760746 0.01678619720041752 0.0901443213224411 0.05682160705327988
peppertopping -0.16415536403656006 0.051966872066259384 -0.11935452371835709 0.11123394221067429 0.12163224071264267 -0.08968542516231537 0.11402978748083115 0.010540226474404335 -0.12489297986030579 -0.009282412938773632 -0.159220352768898 0.14901244640350342 0.04708317294716835 0.07426293939352036 -0.06272122263908386 0.037708308547735214 0.08445443958044052 -0.0877794623374939 -0.05782570689916611 0.03989053890109062 -0.09154263883829117 -0.07602867484092712 -0.007356272079050541 -0.03706463798880577 0.11457119882106781 0.007712300401180983 -0.09523924440145493 -0.07045677304267883 -0.1329367756843567 0.12833385169506073 -0.090412937104702 0.07963643223047256 -0.0015938517171889544 -0.022554373368620872 0.16515524685382843 0.05868244543671608 0.03091198205947876 -0.056011863052845 0.2078731209039688 0.17881865799427032 -0.07438509166240692 -0.1401345282793045 0.1500641256570816 -0.04547533020377159 -0.10909426957368851 0.08956591039896011 0.0646517351269722 0.25666341185569763 0.04177934676408768 -0.10368289053440094 -0.02966386452317238 -0.003010326065123081 0.02274240180850029 -0.13665351271629333 0.21373803913593292 -0.09292750805616379 0.06384122371673584 0.020004119724035263 0.013926932588219643 0.09769157320261002 -0.039842475205659866 0.16950219869613647 -0.05711567774415016 0.09488429129123688 -0.02563965693116188 0.018802260980010033 0.06855516880750656 -0.011743289418518543 0.05982919782400131 0.06124783679842949 -0.04643290117383003 -0.23509995639324188 -0.08593455702066422 0.09415396302938461 -0.043038152158260345 0.0030072566587477922 -0.02944120578467846 -0.021160734817385674 -0.030592110008001328 -0.14134082198143005 -0.14145827293395996 0.04714880883693695 -0.03150248900055885 -0.03331628441810608 0.18582627177238464 0.023070547729730606 0.01101220678538084 -0.041513387113809586 -0.11879073828458786 0.0031655647326260805 0.03371552377939224 -0.04515445604920387 -0.2939380407333374 0.03080296330153942 0.12743547558784485 -0.01696224883198738 -0.10664208978414536 -0.0835801362991333 0.06275542080402374 -0.10302017629146576
or....etc. -0.016278916969895363 -0.10060150921344757 0.08434943854808807 -0.19037629663944244 0.11964260786771774 0.06265847384929657 0.0712188333272934 -0.02248380146920681 0.11583356559276581 -0.1191631555557251 -0.10367965698242188 -0.11277269572019577 -0.09472865611314774 0.09176463633775711 0.057252585887908936 0.01175242755562067 -0.02019970305263996 0.05824830383062363 0.05022570118308067 -0.04708952456712723 0.04716541990637779 -0.22129036486148834 0.08265471458435059 0.10018517076969147 0.012524609453976154 -0.09030095487833023 0.016567585989832878 -0.05940674990415573 -0.059159476310014725 0.061457887291908264 -0.02843456342816353 0.04319505766034126 -0.08595331013202667 -0.04371091350913048 -0.0932564064860344 0.05709194019436836 0.13736775517463684 -0.04755571112036705 0.03696364536881447 0.09095830470323563 -0.04383695870637894 0.021158231422305107 -0.14246276021003723 -0.11114944517612457 -0.07529457658529282 -0.16430242359638214 -0.09857843071222305 -0.004662628751248121 0.19431795179843903 -0.14001864194869995 -0.007371651940047741 0.2067975401878357 0.033025242388248444 -0.10908832401037216 0.05598234385251999 0.11707017570734024 -0.11538832634687424 0.18136772513389587 -0.1049419641494751 -0.22141924500465393 -0.030488459393382072 0.005060168914496899 0.006766190752387047 0.05116574466228485 0.008151664398610592 0.05089009553194046 0.08480769395828247 0.08621949702501297 0.15663963556289673 0.19931066036224365 0.13979652523994446 0.015204192139208317 0.004109696950763464 0.16460451483726501 0.14250041544437408 0.1498379111289978 -0.22395771741867065 0.0474926196038723 0.06373570114374161 0.009890517219901085 0.039631668478250504 -0.11044888198375702 -0.030289359390735626 -0.09970670193433762 -0.036647554486989975 0.009781425818800926 0.1449117809534073 -0.040687087923288345 -0.16085030138492584 -0.08286638557910919 0.009608552791178226 -0.013886433094739914 0.06357989460229874 -0.05521933361887932 0.1067970022559166 -0.023465843871235847 -0.16417565941810608 0.07789785414934158 -0.13042958080768585 -0.06289292126893997
meaty 0.009341576136648655 0.013286823406815529 -0.06859409809112549 0.01827104762196541 0.10701732337474823 -0.06350274384021759 -0.09107615798711777 -0.07977323979139328 0.06685138493776321 -0.0019050517585128546 0.17042753100395203 0.06268478184938431 0.05252112075686455 0.08609116077423096 -0.12034652382135391 0.1301925927400589 -0.06455962359905243 -0.0015172993298619986 -0.06641419976949692 -0.01345231756567955 0.15524162352085114 -0.12057266384363174 -0.10839806497097015 0.11487074941396713 0.007542106788605452 -0.040979743003845215 -0.07659831643104553 0.005118325352668762 0.0618458017706871 -0.11659388244152069 -0.10183245688676834 -0.14124001562595367 0.14502361416816711 0.024082453921437263 -0.029565129429101944 -0.2825167775154114 -0.009913160465657711 -0.109604611992836 0.18572388589382172 -0.003751138225197792 0.06035733222961426 0.04573524743318558 -0.11518385261297226 -0.12084367871284485 0.1415777951478958 0.03875147923827171 0.04811844974756241 -0.0650022104382515 -0.11404954642057419 -0.12067768722772598 4.3974039726890624E-4 -0.014898965135216713 -0.003928221762180328 0.18588568270206451 0.07161083072423935 0.1295270323753357 0.21179066598415375 0.05691909044981003 0.041880011558532715 -0.15383538603782654 0.03521912544965744 0.2014327049255371 0.051987528800964355 0.0031464567873626947 0.19047921895980835 -0.018365560099482536 0.12839101254940033 0.005059308838099241 0.05145624652504921 -0.016810769215226173 -0.1454884260892868 -0.10055628418922424 -0.20210397243499756 -0.0017950403271242976 0.01724979653954506 0.1116732731461525 -0.10160260647535324 0.11043258011341095 -0.19275930523872375 -0.06842771172523499 -0.12679317593574524 0.06185802444815636 0.04040119796991348 -0.0654086321592331 0.08987383544445038 -0.07079661637544632 0.03700639307498932 0.03533858805894852 0.15896500647068024 0.0726047083735466 0.1094474196434021 -0.09133953601121902 -0.017664741724729538 -0.03908541053533554 0.07332992553710938 -0.012918048538267612 0.03497901186347008 -0.07287275046110153 0.03913413733243942 0.17810587584972382
ad 0.17088307440280914 -0.027896028012037277 0.07867714017629623 -0.08478010445833206 -0.08435817062854767 -0.09022893756628036 0.03798912838101387 0.06272777169942856 0.005550558678805828 -0.13019683957099915 -0.05217578634619713 0.026450883597135544 0.13029196858406067 0.1704530566930771 -0.03459431231021881 0.051011912524700165 0.05589841306209564 0.0386173278093338 -0.06597732752561569 0.013952357694506645 -0.12453643232584 -0.11017429083585739 -0.007665758952498436 0.0724877193570137 0.1778380572795868 -0.051430489867925644 -0.14704328775405884 -0.06120823696255684 -0.10240685939788818 -0.13408544659614563 -0.06649541109800339 -0.00782193522900343 -0.11682502180337906 -0.08750667423009872 0.026851776987314224 -0.1612977385520935 -0.08202029764652252 0.005762350745499134 0.14188647270202637 -0.05660635232925415 0.05681917071342468 -0.053473807871341705 -0.2815797030925751 -0.05053950846195221 -0.10281526297330856 0.06643133610486984 0.19778010249137878 0.22127342224121094 0.09987431764602661 0.0277028139680624 0.06110621243715286 0.024996647611260414 0.2122977375984192 0.114531971514225 0.07928182184696198 0.051086217164993286 0.07858903706073761 0.0011944716097787023 0.1287667602300644 0.037389010190963745 0.0051086596213281155 0.010522421449422836 -0.02549915947020054 0.10362207144498825 0.06486529856920242 0.04206022247672081 0.018948864191770554 0.017858412116765976 0.245466947555542 -0.0029832685831934214 -0.0859062597155571 -0.00448743999004364 0.011292657814919949 0.08790942281484604 -0.06616275757551193 0.043547216802835464 -0.017405537888407707 -0.047309957444667816 -0.15027715265750885 0.07999522238969803 -0.020471032708883286 -0.0917651578783989 -0.07676892727613449 -0.03654411807656288 -0.13102638721466064 -0.010785473510622978 -0.14711014926433563 -0.025661202147603035 -0.1285984069108963 0.20675510168075562 0.03436020016670227 -0.05092422664165497 -0.0014795634197071195 -0.10090839862823486 -0.18648232519626617 0.14192001521587372 -0.06497835367918015 -0.1549844890832901 0.07078517973423004 0.08382181823253632
leektopping -0.09964779019355774 -0.018522843718528748 0.035234976559877396 -0.26198965311050415 0.11339251697063446 -0.20511162281036377 0.10613662749528885 -0.09113061428070068 0.14584413170814514 -7.765415939502418E-4 -0.12003768235445023 -0.049026235938072205 -0.07528374344110489 0.03239104896783829 -0.1994195282459259 0.07006441056728363 -0.01941717229783535 -0.006298553664237261 0.0211513489484787 0.02104393020272255 -0.12914332747459412 0.017589611932635307 0.06666137278079987 0.05087202042341232 -0.007390622515231371 -0.04729734733700752 0.06960096955299377 0.03758751600980759 -0.004860259126871824 -0.04551953449845314 0.024145152419805527 0.09073794633150101 0.009088884107768536 -0.07255823910236359 0.04556873068213463 0.032731104642152786 0.19063617289066315 0.0010283946758136153 0.1658577173948288 0.09435376524925232 -0.0621180459856987 -0.038003407418727875 0.018725547939538956 -0.028149032965302467 0.17521324753761292 0.055880799889564514 -0.04993250593543053 -0.00700921006500721 0.06673204153776169 0.10872165113687515 0.11680969595909119 0.10587913542985916 0.12911252677440643 0.027746669948101044 0.07762357592582703 0.23601087927818298 -0.12081003934144974 0.041640348732471466 -0.016668226569890976 -0.019395045936107635 -0.06150482967495918 0.29716137051582336 0.06794853508472443 0.03299763426184654 -0.1561032384634018 -0.023655792698264122 0.1161571517586708 -0.08511175960302353 0.00439790915697813 0.10361659526824951 0.023929016664624214 -0.016830220818519592 -0.14381662011146545 0.2036932408809662 0.08989698439836502 -0.10245856642723083 0.10924254357814789 0.20243236422538757 0.13702204823493958 0.08197436481714249 -0.08695436269044876 0.057597965002059937 0.05651357024908066 -0.010613745078444481 -0.022053413093090057 0.025233600288629532 0.025586426258087158 -0.10978695005178452 -0.2060263603925705 -0.01501777395606041 -0.02446592226624489 0.0643526017665863 0.07293630391359329 -0.02350858971476555 -0.11157965660095215 0.03936079517006874 0.03987909480929375 -0.10987955331802368 0.16279244422912598 -0.0070936609990894794
mild 0.0849614366889 -0.10909415781497955 0.01914416067302227 -0.04978088289499283 0.030164917930960655 0.10700885206460953 0.08202025294303894 -0.02315077930688858 -0.20956797897815704 0.0266705509275198 -0.029106317088007927 0.009349286556243896 0.045136958360672 0.0820731371641159 0.0015536341816186905 0.07049153745174408 -0.0921945720911026 -0.11908263713121414 0.0977385938167572 0.02662728540599346 -0.14284315705299377 0.020557789131999016 0.16808561980724335 0.14719274640083313 -0.1285042017698288 -0.1566433310508728 0.05576140061020851 -0.02351265959441662 -0.12036983668804169 -0.07901887595653534 0.17181140184402466 -0.005358763970434666 -0.008293208666145802 -0.10980591177940369 0.1505632996559143 -0.020234880968928337 0.083155557513237 0.1174248680472374 0.07019668072462082 -0.2823937237262726 -0.034744977951049805 0.06181778013706207 0.10569614171981812 -0.05852259323000908 -0.13806217908859253 0.16067658364772797 0.08588866144418716 -0.019485196098685265 -0.02323126420378685 -0.07899142056703568 0.033939845860004425 -0.0948285385966301 -0.09691420197486877 0.04560554400086403 -0.101400226354599 -0.0015721499221399426 0.028428826481103897 -0.0371578074991703 0.019061043858528137 0.0557103268802166 -0.1553991436958313 0.13939164578914642 0.035659242421388626 0.10463470965623856 0.011655595153570175 -0.02024880424141884 -0.0630233958363533 0.042045775800943375 0.1116095781326294 0.07128727436065674 -0.043469659984111786 -0.1443554311990738 -0.05841803923249245 0.17263831198215485 0.15291835367679596 0.14839625358581543 -0.14653825759887695 0.2755034267902374 -0.015600479207932949 0.013478637672960758 -0.08734869956970215 0.0781814381480217 -0.13917821645736694 -0.11217057704925537 0.010117655619978905 0.14988170564174652 -0.06736250221729279 0.0593063123524189 -0.15782517194747925 -0.15688881278038025 -0.005631779786199331 0.017569979652762413 -0.07769518345594406 0.07671616226434708 0.023867813870310783 -0.09941256046295166 -0.08545494079589844 0.005071228835731745 0.06973713636398315 -0.06101100519299507
( -0.00718526029959321 -0.03859980031847954 0.08028192818164825 -0.0782904252409935 0.21052975952625275 0.1862865686416626 0.04483812674880028 -0.20235249400138855 0.013643784448504448 -0.13550931215286255 -0.06657470762729645 -0.08710439503192902 -0.060115747153759 0.13042747974395752 -0.05631931126117706 0.1294640451669693 -0.07162850350141525 -0.03423690423369408 -0.06433691084384918 0.07166507840156555 0.055554091930389404 -0.15340833365917206 0.05896047502756119 0.16349171102046967 -0.03179311379790306 -0.09791447967290878 0.024013234302401543 -0.07869933545589447 0.08150001615285873 -0.14790798723697662 0.01635604165494442 0.08259011059999466 0.05325423926115036 -0.06666160374879837 0.025706438347697258 0.1641019731760025 0.11649207025766373 -0.12333817034959793 0.19294527173042297 0.10011238604784012 0.08406611531972885 0.003967802971601486 -0.0098356818780303 -0.061831701546907425 -0.15540581941604614 -0.06496069580316544 -0.042269013822078705 -0.05399979650974274 0.09342324733734131 -0.09151048213243484 -0.09535117447376251 0.011599634774029255 0.07781340926885605 -0.03840415179729462 0.09448644518852234 0.020143913105130196 -0.21225900948047638 0.03953836113214493 0.03002098761498928 -0.14915263652801514 -0.19257766008377075 0.03315131738781929 0.09829749912023544 -0.03082977794110775 0.0898052453994751 0.15697121620178223 -0.04110298678278923 0.03133406117558479 0.1346382051706314 -0.06945133954286575 0.034976400434970856 0.06381689012050629 -0.026660598814487457 0.19383208453655243 0.09183862805366516 0.07832743972539902 -0.04104172810912132 -0.014509942382574081 -0.03260060399770737 0.04194743558764458 0.1663448065519333 -0.1676526516675949 -0.04722395911812782 -0.08787739276885986 -0.04961952567100525 -0.10223934799432755 0.17146572470664978 0.05636941269040108 -0.07734492421150208 -0.1852247416973114 0.02548331208527088 -0.008531639352440834 0.1296142041683197 -0.018037931993603706 0.020131664350628853 -0.10326574742794037 -0.03681814298033714 0.12780511379241943 -0.1639290750026703 -0.06690248847007751
) -0.044636499136686325 -0.020333081483840942 0.11110716313123703 -0.12532122433185577 0.13743670284748077 0.10489767789840698 -0.030217748135328293 -0.03575723245739937 0.03829839825630188 -0.13236099481582642 -0.032669320702552795 -0.08438753336668015 -0.0535871796309948 0.15985192358493805 -0.04023134335875511 0.10360924154520035 -0.04652877524495125 -0.0713975727558136 0.07005180418491364 0.07428588718175888 0.0479624904692173 -0.1304430067539215 0.021461598575115204 0.12158414721488953 -0.02001127228140831 -0.10070235282182693 0.04228224605321884 -0.06294648349285126 0.029560735449194908 0.02485216222703457 0.027212057262659073 -0.03553848713636398 -0.119974285364151 -0.1051538735628128 -0.014628603123128414 0.0740610808134079 0.18977977335453033 0.0016700515989214182 0.11091654747724533 0.24219796061515808 -0.0035870929714292288 0.05594867840409279 -0.11486602574586868 -0.0679418072104454 0.0895196869969368 -0.11917604506015778 0.037213034927845 0.0326397679746151 0.006237931549549103 -0.10779374837875366 -0.042077578604221344 0.10648109018802643 0.09945908933877945 0.034825537353754044 0.09083905816078186 0.05172588303685188 -0.12400026619434357 0.04939420148730278 0.07645413279533386 -0.27676400542259216 -0.25938284397125244 0.19035707414150238 -0.060300614684820175 0.13335537910461426 -0.09552980959415436 0.004850155208259821 -0.02802540361881256 0.09926783293485641 0.1754143089056015 9.274818585254252E-4 0.02332586981356144 0.027128299698233604 0.04984341934323311 0.07940924167633057 0.020240632817149162 0.2161676436662674 -0.09562362730503082 -0.040362097322940826 -0.012991723604500294 -0.04517035186290741 0.06661297380924225 -0.17944733798503876 -0.02722407877445221 0.00263262540102005 -0.0016916029853746295 0.03127330541610718 0.1236952394247055 -0.058713722974061966 -0.04923582822084427 -0.1481061726808548 -0.09804835170507431 0.061509959399700165 0.22171877324581146 0.07309293746948242 0.1971103399991989 0.06292896717786789 -0.07429055869579315 0.002096304204314947 -0.14898917078971863 -0.03270988166332245
require -0.07771790772676468 0.07680145651102066 0.010063200257718563 -0.04574813321232796 0.1208539679646492 0.14457374811172485 -0.14082761108875275 -0.016931358724832535 -0.08858107775449753 0.03621218353509903 -0.023660704493522644 -0.024428119882941246 -0.12907026708126068 0.1824742555618286 0.07510615885257721 0.09728174656629562 -0.015103654004633427 -0.1310395896434784 0.04661281406879425 0.05770353972911835 -0.0018397116800770164 -0.09831517934799194 0.0074249086901545525 -0.011669252999126911 -0.04253549128770828 -0.10506138205528259 0.08960644900798798 -0.02166021056473255 0.03355870395898819 0.06122526526451111 -0.05145171284675598 -0.09570207446813583 0.10600822418928146 -0.21959999203681946 -0.18069733679294586 0.17148472368717194 0.002156103029847145 0.024149341508746147 0.1989152431488037 0.1738128364086151 0.10106078535318375 -0.03577957674860954 -0.13390842080116272 0.06326542049646378 -0.0337836816906929 -0.030796296894550323 0.12375150620937347 0.14470349252223969 0.005032007582485676 -0.12239670753479004 0.09053521603345871 -0.05431853234767914 0.009986580349504948 0.05140700191259384 -0.06364497542381287 0.054561518132686615 -0.00813219416886568 -0.049261197447776794 0.0101928086951375 -0.11240849643945694 0.03532535955309868 0.1516154706478119 -0.03296143561601639 0.20747767388820648 -0.029688812792301178 -0.02252100594341755 -0.08146963268518448 0.050624098628759384 0.20755241811275482 0.05547625571489334 0.09469510614871979 0.03832166641950607 0.043667495250701904 0.04368477687239647 0.055686213076114655 0.21061871945858002 -0.0501835010945797 -0.12969821691513062 -0.0697755217552185 -0.0314796157181263 -0.1427731215953827 -0.14907217025756836 0.044320154935121536 0.016182400286197662 -0.08390568941831589 -0.13139639794826508 -0.18822011351585388 -0.07561792433261871 -0.06979852169752121 -0.02021615393459797 -0.12678876519203186 0.09427008777856827 0.2634674906730652 -0.06391964852809906 0.1621837168931961 0.05708181485533714 -0.010728443041443825 -0.018091725185513496 -0.09431383013725281 0.06567421555519104
, 0.07030748575925827 0.04167551547288895 0.07409800589084625 0.0047250771895051 0.16204364597797394 0.1523553729057312 -0.057067252695560455 -0.19304294884204865 -0.02846561186015606 -0.11599241942167282 -0.06198221072554588 -0.035655319690704346 -0.13832257688045502 0.062163908034563065 0.022798599675297737 0.10984713584184647 0.10975659638643265 0.10470905900001526 -0.12587550282478333 0.003133382648229599 0.05942816659808159 -0.09025952219963074 0.05244210362434387 0.1422564834356308 -0.014572235755622387 -0.1470678299665451 -0.07967238128185272 -0.0978236272931099 0.04384950175881386 -0.17523902654647827 -0.16698233783245087 -0.09487871825695038 0.00862652063369751 0.05633512884378433 -0.009921462275087833 0.1450739949941635 0.057996395975351334 -0.08534471690654755 0.12856805324554443 0.1144181340932846 0.02556663192808628 0.0014943672576919198 -0.007875777781009674 -0.08028105646371841 -0.09815119951963425 -0.03541978821158409 0.016336655244231224 0.06358661502599716 0.0881594568490982 -0.18514908850193024 -0.026841912418603897 -0.06997126340866089 0.02766825631260872 -0.020887890830636024 0.10781683027744293 -0.07251980900764465 -0.04387284070253372 -2.708413521759212E-4 -0.08740869164466858 -0.09861952811479568 -0.12799665331840515 0.02689233236014843 -0.02254694513976574 0.12211163341999054 0.01610550284385681 -0.04041846841573715 -0.03684847056865692 0.13743022084236145 0.20096606016159058 -0.14966659247875214 0.0796966552734375 0.16264744102954865 -0.0868338793516159 0.11488594114780426 0.07085175067186356 0.18991346657276154 -0.1308957040309906 0.09907806664705276 -0.12064244598150253 -0.07232843339443207 0.14523538947105408 -0.19822785258293152 0.014858431182801723 0.057385873049497604 -0.0629420056939125 -0.08132560551166534 -0.002477137139067054 0.14931300282478333 0.052301593124866486 -0.19408288598060608 -0.13383974134922028 0.01340285874903202 -0.039330046623945236 -0.12886293232440948 0.0575585775077343 0.03366190940141678 -0.06941170990467072 0.12648041546344757 -0.16666395962238312 0.06852564960718155
Subclasses 0.02902952954173088 -0.025639647617936134 0.10761778801679611 -0.15324147045612335 0.06147335469722748 0.14836259186267853 -0.05833476409316063 -0.05621113255620003 0.05810970440506935 -0.15799248218536377 -0.12617714703083038 -0.11986003816127777 -0.14607053995132446 0.128280371427536 0.02644656039774418 -0.05863439664244652 -0.0173647478222847 -0.04071576148271561 -0.05530431494116783 0.04409118369221687 0.04432377591729164 -0.16436417400836945 0.07340694218873978 0.13576482236385345 -0.03403528407216072 -0.09980618208646774 -0.030388709157705307 -3.7846332998014987E-4 0.03811097517609596 0.051083389669656754 0.03530638664960861 0.07747044414281845 0.014580955728888512 -0.15686342120170593 -0.08380230516195297 0.11811753362417221 0.21179597079753876 -0.04461454227566719 0.13066180050373077 0.07441818714141846 0.06469078361988068 -0.04548327997326851 -0.0837155431509018 -0.040704600512981415 -0.21724700927734375 -0.14907996356487274 -0.09058195352554321 0.09044398367404938 0.028868429362773895 -0.06166205555200577 -0.01462376769632101 0.0876067578792572 0.0036895093508064747 -0.06785567849874496 0.04705896973609924 0.11833750456571579 -0.06852202862501144 0.08943460136651993 -0.06637658923864365 -0.19753731787204742 -0.10841313004493713 0.1636069267988205 0.03660772368311882 0.060982830822467804 0.02093641087412834 0.04500815272331238 -0.06553080677986145 0.1842653453350067 0.11516211181879044 0.009687388315796852 -0.07615569978952408 0.12140989303588867 -0.09217636287212372 0.2239559441804886 0.11640337854623795 0.09009300172328949 -0.17685753107070923 0.0324060432612896 0.08572633564472198 0.04611337184906006 0.06659052520990372 -0.0325898751616478 -0.029789622873067856 -0.018867745995521545 -0.03379659354686737 -0.08680122345685959 0.12259980291128159 -0.043136730790138245 -0.2245602160692215 -0.14150631427764893 -0.010658963583409786 0.07632037997245789 0.20819418132305145 -0.09717756509780884 -0.047124676406383514 -0.04884500801563263 -0.10759143531322479 0.06405574828386307 -0.12442667782306671 -0.06623906642198563
Hot 0.041602734476327896 -0.03861274942755699 -0.04051894694566727 0.14844924211502075 0.1140274778008461 -0.013494736514985561 -0.15596935153007507 0.017219074070453644 0.1349240243434906 -0.1032811850309372 0.05795088782906532 -0.1330452561378479 0.09226609021425247 0.04849424213171005 -0.08314399421215057 -0.014196391217410564 -0.005307264160364866 0.1619688719511032 -0.10937550663948059 0.17251217365264893 0.006043978966772556 0.0863606259226799 0.09598753601312637 0.02055753767490387 -0.057054828852415085 -0.090861476957798 -0.10436728596687317 -0.11553666740655899 -0.0674569383263588 0.038765519857406616 -0.07923033088445663 0.02672550641000271 0.03752193972468376 -0.07096190750598907 -0.045222580432891846 0.05902966111898422 -0.04250411316752434 0.04880061000585556 0.10212966799736023 0.1407039612531662 0.125179260969162 -0.06788365542888641 0.07798217982053757 -0.06477386504411697 -0.2116941660642624 0.05364738032221794 0.029478060081601143 0.18262074887752533 -0.054414231330156326 -0.025105642154812813 0.060272179543972015 -0.30045026540756226 0.014977148734033108 0.11303476244211197 0.02513706311583519 -0.017420262098312378 0.05742941051721573 -0.02261512167751789 0.0360027477145195 0.0506267175078392 0.012649082578718662 0.10686756670475006 -0.029990211129188538 -0.013594492338597775 0.16803045570850372 0.1645577996969223 0.048507414758205414 0.1439286172389984 0.02984866127371788 0.007883373647928238 -0.004379699006676674 0.10826186835765839 -0.14404655992984772 0.058627933263778687 -0.05590096116065979 -0.11574159562587738 -0.09422314167022705 0.04873611032962799 0.12641996145248413 0.005792391952127218 0.254294753074646 -0.06133299693465233 -0.026754409074783325 -0.17177000641822815 -0.04544398933649063 -0.12238705903291702 0.18777982890605927 0.1370507776737213 -0.1930578351020813 -0.03335515409708023 0.19444045424461365 0.02478400617837906 0.047555550932884216 0.062103431671857834 0.0865604430437088 0.06609592586755753 0.011596535332500935 0.09367456287145615 0.07712885737419128 -0.06645935028791428
an -0.14877574145793915 0.04353836551308632 0.1871870905160904 -0.06295061111450195 0.18403252959251404 -0.08588907867670059 -0.14166045188903809 -0.002629755297675729 -0.112855464220047 0.08812321722507477 -0.0681750476360321 -0.10377007722854614 -0.12380038946866989 0.14147812128067017 0.019618412479758263 0.01648125797510147 0.021272283047437668 -0.17249207198619843 0.035484615713357925 -0.010205834172666073 -0.04411597549915314 -0.04786977171897888 0.002872801385819912 0.071910060942173 0.04736042767763138 -0.01702246628701687 -0.039810508489608765 0.06740141659975052 0.14150270819664001 -0.046508144587278366 -0.034568820148706436 -0.14865054190158844 0.15490128099918365 -0.07450012862682343 -0.1863195151090622 0.16498035192489624 -0.06559132039546967 -0.04371507465839386 0.17438998818397522 4.2067753383889794E-4 0.18503065407276154 -0.05508426949381828 -0.13027630746364594 0.07223992049694061 -0.10137716680765152 6.263472605496645E-4 0.07796801626682281 0.1994834989309311 -0.05820782110095024 -0.09115909039974213 0.020279623568058014 -0.13735094666481018 -0.02416069433093071 0.040979862213134766 -0.06135573983192444 6.212217704160139E-5 -0.2075582593679428 -0.006986705586314201 -0.04559464752674103 -0.12162523716688156 0.04189251363277435 0.07016098499298096 0.02207309938967228 0.09949301183223724 0.0785222128033638 -0.09272874891757965 -0.04920687526464462 -0.03300964832305908 0.15181243419647217 -0.16878186166286469 0.20546318590641022 0.11934581398963928 0.008798266761004925 0.005028175190091133 0.22326961159706116 0.04977794364094734 -0.04237835854291916 -0.043228328227996826 -0.043833423405885696 -0.07540123909711838 0.03247014433145523 -0.1687198430299759 0.09651106595993042 0.1526389867067337 -0.008107146248221397 -0.20156465470790863 0.026298684999346733 -0.06538742035627365 0.03748062625527382 -0.13608554005622864 0.06759216636419296 0.03751784563064575 0.0066168359480798244 -0.035887230187654495 0.08647757768630981 0.12227779626846313 0.046162284910678864 -0.026281166821718216 0.022845294326543808 -0.007399405352771282
- 0.0391257219016552 0.05202271789312363 0.08744140714406967 0.010479744523763657 0.16529446840286255 0.011816013604402542 -0.0337362103164196 -0.03421623632311821 -0.017295299097895622 -0.012320064939558506 -0.08070353418588638 -0.10233049094676971 -0.14387021958827972 0.09035223722457886 -0.03082199953496456 0.008508676663041115 -0.07344962656497955 -0.09875375032424927 -0.04580666869878769 -0.010312196798622608 0.08160306513309479 -0.03962026536464691 0.15790843963623047 0.10256548225879669 -0.07020098716020584 -0.06161796674132347 0.17324575781822205 -0.024630500003695488 0.04052804410457611 -0.01487801130861044 -0.1023414209485054 -0.0024219288025051355 -0.11394011229276657 -0.0711643248796463 -0.019103415310382843 0.13670803606510162 0.11200447380542755 -0.07101618498563766 0.2075902223587036 0.1419086903333664 -0.03162272274494171 -0.030185261741280556 0.05680433660745621 -0.06626478582620621 0.007686949335038662 0.03627534583210945 -0.02874305471777916 0.03832634165883064 0.1747955083847046 -0.15544834733009338 0.10864251852035522 0.04833279550075531 0.07750917226076126 -0.13223952054977417 0.02567334659397602 0.0994645431637764 -0.2532496452331543 0.04137054830789566 -0.12556947767734528 -0.12997739017009735 -0.20894503593444824 0.09313374012708664 0.002975071780383587 0.03015465848147869 0.06629906594753265 0.1339823305606842 -0.08431321382522583 0.012986891902983189 0.2098553329706192 0.046444181352853775 0.08579064905643463 0.057712920010089874 -0.20655281841754913 0.026050155982375145 0.13130848109722137 0.07188677787780762 -0.1392591893672943 -0.0256508681923151 0.02590242028236389 -0.11460921168327332 0.176724374294281 -0.2555932104587555 -0.08542198687791824 0.04130026325583458 -0.051605191081762314 -0.11381949484348297 0.09053248912096024 0.05719761922955513 -0.012577202171087265 -0.06885293871164322 0.12118665874004364 0.04835109785199165 0.17710818350315094 -0.022487543523311615 0.05095294490456581 0.17244964838027954 -0.04670754820108414 0.062012095004320145 -0.03847215324640274 -0.0014536388916894794
MozzarellaTopping 0.09296414256095886 -0.04310344532132149 0.003530922345817089 0.02094515785574913 0.04013226181268692 0.05655043572187424 0.047386445105075836 -0.1070365384221077 0.0037843924947082996 0.0011164442403241992 -0.1319512575864792 -0.11890962719917297 -0.036575041711330414 0.10229795426130295 -0.14490842819213867 -0.034631501883268356 -0.12271925061941147 0.15035854279994965 -0.16584984958171844 0.029401957988739014 -0.03166699409484863 0.06762528419494629 0.04921608790755272 0.03108825907111168 0.0018899160204455256 0.03251497074961662 -0.005044435616582632 0.07557117938995361 -0.020806534215807915 -0.17430536448955536 -0.05011751502752304 -0.08043855428695679 0.0373176634311676 -0.2321338802576065 0.0019395772833377123 0.07813836634159088 0.07233336567878723 0.03730757161974907 -0.020612580701708794 0.08590791374444962 0.030575169250369072 0.11140673607587814 0.026368120685219765 0.0022326421458274126 -0.09189985692501068 0.04894020035862923 -0.07675568014383316 0.061033330857753754 0.07414814084768295 -0.033348873257637024 0.12573029100894928 -0.07033057510852814 -0.10417437553405762 0.0029539279639720917 -0.009559103287756443 -0.11091770231723785 -0.19782832264900208 -0.06233419477939606 -0.0727299377322197 -0.05601664260029793 -5.626181955449283E-4 0.18580369651317596 -0.14414063096046448 0.12266834080219269 0.009076446294784546 -0.07301323115825653 -0.19418291747570038 0.017765909433364868 0.2023153305053711 0.043377265334129333 -0.09116841852664948 0.07604220509529114 -0.028398357331752777 0.23205052316188812 0.15244874358177185 -0.08833537995815277 -0.04263059422373772 0.13373640179634094 -0.025590211153030396 -0.04664149880409241 0.09828376770019531 -0.01282361801713705 -0.01811899244785309 -0.11729705333709717 -0.1956181526184082 -0.15487679839134216 0.044063154608011246 -0.12703253328800201 -0.13937658071517944 -0.15087810158729553 0.24285542964935303 0.08402760326862335 0.17213426530361176 -0.11506134271621704 0.036531977355480194 0.018882624804973602 0.1303887665271759 0.1175193265080452 0.05029258131980896 -0.041085969656705856
. -0.011361716315150261 -0.015177405439317226 0.1005619689822197 -0.13195934891700745 0.10939332097768784 0.033315181732177734 -0.14936846494674683 -0.12629668414592743 0.10046348720788956 -0.10452279448509216 0.012109947390854359 -0.11490681022405624 -0.2122213989496231 0.11945625394582748 0.015263060107827187 0.09850610792636871 0.016286328434944153 -0.13228027522563934 -0.04752360284328461 0.009936906397342682 -0.08249133825302124 -0.10918135941028595 -0.011765407398343086 0.07511293888092041 -0.09873086214065552 -0.13782159984111786 -0.05657273158431053 -0.10544373840093613 0.06585230678319931 -0.13977254927158356 -0.06756417453289032 -0.1309027075767517 -0.09322385489940643 -0.05300038680434227 -0.05751561373472214 0.05410255119204521 0.05257450044155121 0.06823073327541351 0.05464678257703781 0.18248915672302246 0.03231709077954292 -0.01584458351135254 -0.1600358635187149 -0.0946577787399292 -0.08380827307701111 -0.14895324409008026 0.04631522670388222 0.03653188794851303 0.09495344758033752 -0.13201934099197388 0.012365206144750118 0.051685821264982224 0.04253186658024788 -0.05058584362268448 0.11078647524118423 -0.11575217545032501 -0.14326944947242737 0.0749516412615776 -0.12139724940061569 -0.12959039211273193 -0.04162616655230522 0.07116949558258057 -0.06977483630180359 0.12762369215488434 0.02674778364598751 0.012485471554100513 -0.12340147793292999 0.08096584677696228 0.15035803616046906 -0.0957726314663887 0.08486859500408173 0.0858594998717308 -0.12353057414293289 -0.023892732337117195 0.06124844774603844 0.19726970791816711 -0.24651379883289337 -0.03509567677974701 -0.047407981008291245 0.028240177780389786 0.011470130644738674 -0.09219671040773392 0.08942677825689316 -0.055413734167814255 -0.1495562642812729 -0.1018768846988678 -0.019335150718688965 -3.2829242991283536E-4 -0.052259668707847595 -0.28019967675209045 -0.1391127109527588 -0.01589994691312313 0.06090443208813667 -0.013597394339740276 0.10935106128454208 -0.004225847776979208 -0.15719881653785706 -0.07011154294013977 -0.1305445283651352 -0.014300459064543247
Herb -0.16135349869728088 -0.0078098657540977 -0.02088075317442417 0.010316828265786171 0.03234393522143364 -0.004457714501768351 -0.06752005219459534 0.007889200933277607 0.07267236709594727 -0.05041199177503586 0.030444825068116188 -0.15663953125476837 -0.09187798202037811 0.08983218669891357 -0.10045511275529861 -0.06539415568113327 -0.03185291588306427 0.08800806105136871 -0.02197088673710823 0.01617838814854622 0.09160356223583221 0.06828509271144867 0.10749903321266174 0.05586608126759529 0.06281686574220657 -0.03067069500684738 -0.10421136766672134 0.012405671179294586 -0.07316010445356369 -0.08892368525266647 -0.053666818886995316 0.0028760377317667007 0.0516824834048748 -0.06582937389612198 -0.1766996532678604 0.10176905244588852 0.11329970508813858 -0.010625598952174187 0.0897994264960289 0.23235878348350525 0.1245095506310463 0.02169458195567131 -0.012709121219813824 -0.03956383839249611 -0.0584687702357769 -0.06147657707333565 -0.17825913429260254 0.20024001598358154 -0.005823919083923101 -0.05776501074433327 -0.05099758133292198 -0.1486855149269104 0.03986300155520439 0.01047667395323515 0.019678032025694847 -0.026854855939745903 -0.01802501082420349 0.04039115831255913 -0.095346599817276 -0.11511074006557465 -0.03389880433678627 0.13210728764533997 -0.041098903864622116 0.09560976177453995 0.13294771313667297 0.001006283680908382 -0.10224089026451111 0.16796603798866272 0.15656311810016632 0.12179024517536163 -0.1368013620376587 0.1176973506808281 -0.18456032872200012 0.205754354596138 -0.03546937555074692 -0.12709064781665802 -0.2259099781513214 0.09120374917984009 0.09704551845788956 -0.05508846417069435 0.10480140149593353 0.011099252849817276 0.0107670733705163 -0.14579832553863525 -0.053955238312482834 -0.15252619981765747 0.02772485464811325 0.06982105225324631 -0.09104431420564651 -0.046273283660411835 0.1099434643983841 0.07012327015399933 0.22216388583183289 0.10321809351444244 0.2325843721628189 0.030056701973080635 -0.0068294634111225605 0.09642935544252396 0.07610005885362625 0.11620400100946426
as -0.0038002023939043283 -0.013654087670147419 0.1826435625553131 0.04748537763953209 0.30141153931617737 0.15230023860931396 0.06580646336078644 -0.18015773594379425 -0.005534548778086901 -0.04036904498934746 -0.09889758378267288 0.07578294724225998 -0.08488243073225021 0.12713484466075897 0.09333500266075134 0.0394953154027462 -0.03839650750160217 -0.06797081232070923 -0.04780013859272003 -4.972491879016161E-4 0.0013434538850560784 -0.04383711516857147 0.05163446068763733 0.1234893649816513 -0.06491700559854507 -0.08007794618606567 0.09246473759412766 -0.040720440447330475 0.03432581573724747 -0.10813605785369873 -0.07265566289424896 0.005090675316751003 -0.07540383189916611 -0.08657636493444443 -0.1067175567150116 0.10297179222106934 0.16683444380760193 -0.15797261893749237 0.23061303794384003 0.19006474316120148 0.046753138303756714 0.034986477345228195 -0.08502697944641113 -0.18293584883213043 -0.06166040524840355 -0.10508602112531662 -0.026926204562187195 -2.3290571698453277E-4 -5.205550696700811E-4 -0.17711010575294495 -0.12188328802585602 0.0877314880490303 0.14066360890865326 -0.019958389922976494 0.01748085953295231 0.049965113401412964 -0.17279139161109924 0.06682892143726349 -0.045224208384752274 -0.13301673531532288 -0.127507746219635 0.0544302798807621 0.058900292962789536 0.04985105246305466 0.12315959483385086 0.0455026738345623 -0.021923812106251717 0.07821417599916458 0.16489030420780182 -0.06592263281345367 0.05546468123793602 0.00545127596706152 -0.0840393602848053 0.18283431231975555 0.09191299229860306 0.17862674593925476 -0.041352272033691406 0.05345882847905159 -5.562232690863311E-4 0.0675397515296936 0.07370489090681076 -0.19398903846740723 -0.05476727709174156 -0.036934323608875275 0.03829551860690117 -0.06672811508178711 0.12517952919006348 0.027974972501397133 -0.021433498710393906 -0.14214102923870087 0.05554788559675217 -1.1754403385566548E-4 0.10239922255277634 -0.019266534596681595 0.15415607392787933 0.059273552149534225 -0.09836793690919876 0.0888276919722557 -0.06574235111474991 -0.013673432171344757
2 0.02209523878991604 -0.04299776628613472 0.048372190445661545 0.021304745227098465 0.1424267441034317 0.21648143231868744 0.12477290630340576 -0.10714706778526306 0.1371661126613617 0.002496050437912345 -0.1372535228729248 -0.04622798040509224 -0.11391385644674301 0.15738815069198608 -0.008085181005299091 0.2136428952217102 -0.08640822023153305 0.03198951110243797 -0.1913275122642517 0.025726262480020523 0.06933078914880753 -0.10374274104833603 0.13088475167751312 0.1908242553472519 0.05765816569328308 -0.14441967010498047 -0.06940825283527374 -0.10238457471132278 0.09260332584381104 -0.22158946096897125 -0.01287129893898964 0.02710857428610325 0.06055378168821335 -0.15536312758922577 -0.036620087921619415 0.19754838943481445 0.0017864728579297662 -0.08145015686750412 0.06351679563522339 0.07986748218536377 0.04689621925354004 -0.07563279569149017 0.053257692605257034 0.01891498640179634 -0.13718587160110474 -0.0845298022031784 -0.012392466887831688 -0.15880705416202545 0.12918730080127716 -0.030625542625784874 -0.05493311956524849 -0.08395051211118698 -0.12600792944431305 0.0666828602552414 0.16024518013000488 0.04982347786426544 -0.1000867486000061 0.030424341559410095 0.076833575963974 -0.041041988879442215 -0.11422073096036911 0.0654950961470604 -0.0672341138124466 0.008652469143271446 0.014154970645904541 0.027292529121041298 -0.012041973881423473 -0.12669029831886292 0.05524769425392151 -0.054792843759059906 0.06724908947944641 0.08211349695920944 0.05509517341852188 0.20596960186958313 0.013329088687896729 0.1372486799955368 -0.03379804641008377 0.011231517419219017 -0.08506450802087784 -0.0038247467018663883 0.07889706641435623 -0.14642111957073212 -0.017283570021390915 -0.10771091282367706 -0.04412344843149185 -0.09218209981918335 0.1003948375582695 -0.042715903371572495 0.002905679401010275 -0.12360107898712158 -0.06515245884656906 -0.05803926661610603 0.12714530527591705 -0.0724448412656784 -0.00892588309943676 -0.13237833976745605 -0.01915656216442585 0.028030266985297203 -0.2574242949485779 -0.03835137560963631
